patient_id,0,1,2,3,4,5,6,7,8,9,10,11,12,13,14,15,16,17,18,19,20,21,22,23,24,25,26,27,28,29,30,31,32,33,34,35,36,37,38,39,40,41,42,43,44,45,46,47,48,49,50,51,52,53,54,55,56,57,58,59,60,61,62,63,64,65,66,67,68,69,70,71,72,73,74,75,76,77,78,79,80,81,82,83,84,85,86,87,88,89,90,91,92,93,94,95,96,97,98,99,100,101,102,103,104,105,106,107,108,109,110,111,112,113,114,115,116,117,118,119,120,121,122,123,124,125,126,127,128,129,130,131,132,133,134,135,136,137,138,139,140,141,142,143,144,145,146,147,148,149,150,151,152,153,154,155,156,157,158,159,160,161,162,163,164,165,166,167,168,169,170,171,172,173,174,175,176,177,178,179,180,181,182,183,184,185,186,187,188,189,190,191,192,193,194,195,196,197,198,199,200,201,202,203,204,205,206,207,208,209,210,211,212,213,214,215,216,217,218,219,220,221,222,223,224,225,226,227,228,229,230,231,232,233,234,235,236,237,238,239,240,241,242,243,244,245,246,247,248,249,250,251,252,253,254,255,256,257,258,259,260,261,262,263,264,265,266,267,268,269,270,271,272,273,274,275,276,277,278,279,280,281,282,283,284,285,286,287,288,289,290,291,292,293,294,295,296,297,298,299,300,301,302,303,304,305,306,307,308,309,310,311,312,313,314,315,316,317,318,319,320,321,322,323,324,325,326,327,328,329,330,331,332,333,334,335,336,337,338,339,340,341,342,343,344,345,346,347,348,349,350,351,352,353,354,355,356,357,358,359,360,361,362,363,364,365,366,367,368,369,370,371,372,373,374,375,376,377,378,379,380,381,382,383,384,385,386,387,388,389,390,391,392,393,394,395,396,397,398,399,400,401,402,403,404,405,406,407,408,409,410,411,412,413,414,415,416,417,418,419,420,421,422,423,424,425,426,427,428,429,430,431,432,433,434,435,436,437,438,439,440,441,442,443,444,445,446,447,448,449,450,451,452,453,454,455,456,457,458,459,460,461,462,463,464,465,466,467,468,469,470,471,472,473,474,475,476,477,478,479,480,481,482,483,484,485,486,487,488,489,490,491,492,493,494,495,496,497,498,499,500,501,502,503,504,505,506,507,508,509,510,511,512,513,514,515,516,517,518,519,520,521,522,523,524,525,526,527,528,529,530,531,532,533,534,535,536,537,538,539,540,541,542,543,544,545,546,547,548,549,550,551,552,553,554,555,556,557,558,559,560,561,562,563,564,565,566,567,568,569,570,571,572,573,574,575,576,577,578,579,580,581,582,583,584,585,586,587,588,589,590,591,592,593,594,595,596,597,598,599,600,601,602,603,604,605,606,607,608,609,610,611,612,613,614,615,616,617,618,619,620,621,622,623,624,625,626,627,628,629,630,631,632,633,634,635,636,637,638,639,640,641,642,643,644,645,646,647,648,649,650,651,652,653,654,655,656,657,658,659,660,661,662,663,664,665,666,667,668,669,670,671,672,673,674,675,676,677,678,679,680,681,682,683,684,685,686,687,688,689,690,691,692,693,694,695,696,697,698,699,700,701,702,703,704,705,706,707,708,709,710,711,712,713,714,715,716,717,718,719,720,721,722,723,724,725,726,727,728,729,730,731,732,733,734,735,736,737,738,739,740,741,742,743,744,745,746,747,748,749,750,751,752,753,754,755,756,757,758,759,760,761,762,763,764,765,766,767,768,769,770,771,772,773,774,775,776,777,778,779,780,781,782,783,784,785,786,787,788,789,790,791,792,793,794,795,796,797,798,799,800,801,802,803,804,805,806,807,808,809,810,811,812,813,814,815,816,817,818,819,820,821,822,823,824,825,826,827,828,829,830,831,832,833,834,835,836,837,838,839,840,841,842,843,844,845,846,847,848,849,850,851,852,853,854,855,856,857,858,859,860,861,862,863,864,865,866,867,868,869,870,871,872,873,874,875,876,877,878,879,880,881,882,883,884,885,886,887,888,889,890,891,892,893,894,895,896,897,898,899,900,901,902,903,904,905,906,907,908,909,910,911,912,913,914,915,916,917,918,919,920,921,922,923,924,925,926,927,928,929,930,931,932,933,934,935,936,937,938,939,940,941,942,943,944,945,946,947,948,949,950,951,952,953,954,955,956,957,958,959,960,961,962,963,964,965,966,967,968,969,970,971,972,973,974,975,976,977,978,979,980,981,982,983,984,985,986,987,988,989,990,991,992,993,994,995,996,997,998,999,1000,1001,1002,1003,1004,1005,1006,1007,1008,1009,1010,1011,1012,1013,1014,1015,1016,1017,1018,1019,1020,1021,1022,1023,1024,1025,1026,1027,1028,1029,1030,1031,1032,1033,1034,1035,1036,1037,1038,1039,1040,1041,1042,1043,1044,1045,1046,1047,1048,1049,1050,1051,1052,1053,1054,1055,1056,1057,1058,1059,1060,1061,1062,1063,1064,1065,1066,1067,1068,1069,1070,1071,1072,1073,1074,1075,1076,1077,1078,1079,1080,1081,1082,1083,1084,1085,1086,1087,1088,1089,1090,1091,1092,1093,1094,1095,1096,1097,1098,1099,1100,1101,1102,1103,1104,1105,1106,1107,1108,1109,1110,1111,1112,1113,1114,1115,1116,1117,1118,1119,1120,1121,1122,1123,1124,1125,1126,1127,1128,1129,1130,1131,1132,1133,1134,1135,1136,1137,1138,1139,1140,1141,1142,1143,1144,1145,1146,1147,1148,1149,1150,1151,condition
C1,0.01690679674814721,-0.09284366456906401,-0.021535526434287175,-0.00339582410178214,0.005690003484974734,0.02041638735643716,0.049948653036997845,-0.05228778550201613,-0.008784460433783003,0.00503110924957679,0.001811755612548739,-0.09341560542079379,0.016894304734942623,-0.0009681217300221456,-0.14378652729824562,0.06762870142467875,0.13748710493828328,-0.04036894305325062,-0.019278522457033407,0.03202827343825475,0.02554261320768939,-0.06389900054403509,0.02265843709830407,-0.00530791266856658,0.045552759650983175,0.052643224615318805,0.07884924680566581,-0.04620854342125323,-0.03075792181184153,0.06150279781339804,-0.06447503937704006,-0.0800375382301597,-0.03741460556572235,0.022139151930086323,-0.05801520044845887,0.07616734075532068,0.1123027552846822,-0.003827423301029048,0.023726305739413145,0.0525479876005604,-0.03829807141301826,-0.030836223087426232,-0.03840071810135764,0.013568470790892063,0.048824245571341414,0.03510012163809606,0.06024035998511131,0.03103173435539481,-0.031908796221158185,-0.0387540378899189,0.025290732824566294,0.051618740999258124,0.04052519304012496,0.0005387982283480443,-0.04734906319920822,-0.030874818443998864,0.03472031390052775,-0.004122389590095657,0.0521252970003108,-0.052020397049516394,-0.024345129693535233,0.037610576803020906,0.004878460990095054,0.11976631431825281,-0.034658297025049856,-0.09617644553040422,-0.01049462701362971,0.08862282570805724,-0.051528974260123664,0.01671627770111579,-0.049960417245238,0.011216651246283103,0.07330253240773504,-0.01233216918496244,0.05000044059300029,-0.007412540464354616,-0.01657491623463224,0.04726527553897627,0.003755441427136353,0.029529733167193817,-0.0771378876170418,0.04814024445328415,0.006021377134946808,-0.06334768720887891,-0.006715523812198202,-0.06802945988786023,-0.10515010800406961,-0.01911246464029235,0.03348109623174274,0.04564166573668636,0.06679563589425504,-0.029459073133659103,-0.04347071505293759,0.08372328785434067,-0.04889465450667745,0.006138543096879207,-0.03517495852148533,-0.05149432076298763,-0.01701132963268388,0.024821627847092895,-0.057267486259977705,0.07978922232559821,-0.041490918734058385,0.05313960300870909,-0.08475050536877624,0.0132887113835173,-0.06099968344530202,-0.010437799231487632,-0.033044975247127406,-0.05954628910256169,0.006990699728848461,-0.04764960752484048,0.06807535002693184,-0.015636684472718293,-0.0608226796386704,0.01154247744570463,0.0846838623714419,-0.004359939233327437,-0.038487910327847576,-0.0006592304149118493,-0.012346215718993242,-0.025216898106089444,-0.03500443433749554,-0.02787896390511677,-0.023971832451225913,-0.07433273616161101,-0.03752536314399425,0.003264936488895844,-0.04575442412260742,-0.0034013158220373885,-0.003028199930291904,0.0811890151439275,0.11675253736127408,0.1381992245464596,-0.03940409534170175,-0.006984001600833621,-0.00549928625766264,0.05295904325542465,0.025017443387402645,-0.009900138976049957,0.07485877128630515,-0.0980820648736743,-0.05372634871398763,0.029596983798413,-0.02473679314659721,-0.06170405189708887,0.016942431398018695,0.026157206946984903,-0.025603650146116194,0.04388993772413776,0.005223008689906816,-0.03265609334094363,-0.04642610567341818,-0.015338452363500907,0.021079748877635765,-0.01499606782497679,0.05024341056395672,-0.056461558062558315,0.06419598530190207,0.07848734614633132,-0.08754138396870434,-0.03269643558927581,0.1252458702771412,-0.05589492100402809,-0.06939089803111878,-0.02262361681677068,-0.09918547874934282,-0.0630762707301185,0.025637950869235777,-0.04550810847210943,0.016281757302536153,-0.04680850870549497,-0.05664103659549382,-0.015688457059948376,-0.07507271067984014,0.0601728289127013,0.06764268161393212,0.0415708971258037,0.028972659249047742,0.007772090752435965,0.05950446622514913,-0.0161697608962715,-0.06579923587393091,0.02215648564582078,-0.09293531230000862,0.0081102293517633,-0.10489569372800085,0.03084100771569284,0.10419151220875755,0.0395136970353828,-0.0652475589007682,-0.03594551271916713,-0.05922401886538136,0.027177893769130285,-0.010448867334459447,-0.014218829336546017,-0.04861216588356745,0.012302946891521498,-0.0520178515307216,-0.0015807962966469659,-0.03704290550572265,0.04208318414469902,0.04083650827922131,0.015439579359173047,0.05065265230723411,-0.05256219397045442,0.09464762714524451,0.003762610192788755,0.02875303628709353,-0.0438738226689606,0.02453823842430436,-0.053064693847971384,0.020333724221859896,-0.026729046878145386,-0.02030324278878519,0.028871541990733104,0.001992057556618709,-0.007915669343588339,0.08430108113361232,0.005259147998700604,-0.05473693253971412,0.009369600250453436,-0.02944623223738985,0.007073624063740869,0.12094507195937733,-0.0017655346203963188,-0.09605309532005177,0.07073670098893459,0.10144918517911417,-0.07275331692437964,0.06323258545687173,-0.007121763362020736,0.05525615503776402,-0.0029823734053326285,-0.0880778916338976,-0.07885147133295513,-0.015733461189711678,-0.06512018973298676,-0.04120332559099022,0.03877201187062424,0.04448356193340566,0.09248478554653725,0.015772732673763216,-0.0009456137903375037,-0.08019965482554588,0.10496719824755536,-0.016336501680053062,0.03556637983842666,-0.08045188887441918,-0.09670343865409262,-0.02395738955465069,-0.02447048983160742,-0.012716250194046737,-0.02343502058238812,-0.03749790625975281,0.019196563331301625,-0.03528738705526474,-0.02765836792885102,0.08212329930212726,-0.01696554788819982,0.037008701829005834,0.00868058503634317,0.07963226861811935,-0.12633720164641732,-0.04038527111079351,-0.08281071056133879,-0.02258239540716638,0.017113457976655835,-0.04671260946519686,-0.037944933366162496,-0.013743106476893443,-0.033481194312533935,-0.03316363071791228,-0.08955274347517975,0.14665636170586713,-0.0489273313724084,0.048779501558000864,-0.06163327231973181,0.013632893079667342,0.012112308620669887,-0.03168089055184704,-0.012062715913249755,0.05517867884943126,-0.013118494299003811,0.048402813182095765,0.10919612883631004,-0.04775904936644834,-0.028408800560045515,0.04970918984672275,-0.018570740174336887,-0.07758626386447008,-0.06971835663835706,-0.04970555864604516,0.01704673392303825,0.018605002662241445,0.009137942703925797,0.03168745332263374,0.011131685031495399,-0.06213435053078573,0.03754324772935289,0.03177546508937984,0.031958667354704776,-0.019660861159702833,-0.029570420610168534,0.023685374961095917,0.00955974136379156,-0.12140004887064422,0.0076196351834774,0.022215666888685447,0.030167397648961692,-0.04155368920606172,0.0635800767107596,0.03000247830973972,-0.010529672041619843,0.015591773447644522,-0.021864079707597642,0.01805248580969557,0.03252758333725036,-0.0017125376922982457,0.02463406261481737,-0.018568829022935968,-0.05781919355674649,0.06613722737702056,0.0023511421063178027,-0.027848407069059576,-0.09538607574822693,0.030516564088933565,-0.020887953440307017,0.0017588552340976993,-0.011021053186288552,0.02525201847729523,0.0813503397259849,-0.030104537670612743,-0.07714832042285778,-0.043070397805857925,0.0008705608878433132,-0.038713963018211534,-0.019910238306199528,0.014515841206584269,-0.04497625948350086,0.1374913612391875,-0.017401477701948664,-0.005003837349772936,-0.0003899235559939603,-0.04203718504915444,0.00028574873550417027,0.015054806063896751,0.025035267964439462,0.0951352090912623,-0.029768141147999135,0.01057156549888309,-0.024076434035437445,0.08554742959644823,-0.02981626159012646,-0.05845880055829137,-0.0542958603860778,0.05122340687687638,-0.04012429838269557,-0.025160224974937303,0.0069142123490262145,0.0324493332153828,-0.06528266472214984,-0.03718042639760303,-0.03584663010717883,-0.07196955535034699,-0.06825749882043083,-0.007780375834748979,-0.0322921983575579,0.08484265824600949,-0.05633622528676234,-0.059749521372742274,0.06457284169125657,0.020632672616048606,-0.014681740273502589,0.027297056913489933,-0.030998397913594336,0.005752684683867558,-0.03481441364061893,0.02850051595981494,0.010291233357681766,-0.02784070005451773,0.02948886607214084,0.25622254284268237,-0.12140515401883017,0.029180676176018393,-0.0408072799896688,-0.014335334528457392,-0.03795950516781376,0.01557766480876149,-0.03196580786340581,0.04349856618284275,-0.11411145859085707,-0.010075853599487978,-0.019216816752710527,0.05342069863956787,0.10370966787561546,-0.058710834217618205,0.037239146931551156,-0.11748903308498707,0.003826460835890955,-0.01931283394653106,-0.020944221162191544,-0.0232671913002958,0.07897043592162022,-0.09092711479119499,-0.05103752266350244,0.06297209333513633,-0.058186191283623526,0.06622173823716192,0.03501138512535433,-0.017881062963471094,-0.013383777287002062,0.047273941441149984,0.03295525892070391,0.012347638250441833,-0.027084730945601668,-0.029941693685717644,0.057850330328475696,-0.14663054542618636,-0.01942304493489439,0.038721607983266175,0.0012573002337513662,-0.019806052963030344,-0.08936637926381939,0.12456057506018738,0.019142905307371255,-0.03576625049512338,0.021127876290218214,-0.06200363854122131,-0.011123969603899454,-0.08540687695174087,0.011170480893958584,0.03975020316201963,0.03610598010355465,-0.025292966658818666,-0.02737080593101665,0.03802832423672311,-0.0033202191889146965,-0.014276330952087116,-0.07731615078506453,0.04437474898873871,-0.017266670050099294,-0.05962542829275295,0.024171304735542423,-0.023520132844959404,0.03144347633724429,-0.028431727884945256,-0.04683992641069198,-0.03758022134426256,-0.019266318276870868,-0.032100903483545155,0.04019824911240149,-0.05135544655380496,0.018052585059811232,-0.02790785709873529,0.0010268179345630428,-0.06743507940319428,-0.03305853208475194,-0.05987705268326014,0.08115186915649769,0.05891088724850518,0.03211349912106628,-0.0025447899606407536,-0.08576635069306975,8.513209652290767e-05,-0.04218165818508743,0.041410559439712315,0.02778024997276057,-0.09063667117874374,-0.1311571546220722,-0.050986348080986045,0.004276990224983607,0.03781093292624718,-0.058741905960810616,-0.09949696977368996,0.022448095004742163,0.01748813030436576,0.0448028098074481,-0.07694824529014438,0.059026903594126406,-0.009086083243191543,-0.07418138339447714,-0.006484129523844406,-0.08197860976548965,0.025322533436365688,0.006956372506362712,0.04348549178035007,0.008069920765031435,0.06263726829283074,-0.05057648084517444,-0.14209356762704917,-0.01835602259620772,-0.09525120329743313,-0.06866027754546593,-0.0330465673262692,0.003965899436969514,0.030578411457853033,0.02577084273519208,0.038729178005072765,-0.01323657167608355,-0.011405218043154924,-0.1063796239854688,0.00485055325490847,-0.04906671865647541,0.007973725392900633,-0.043623184649715055,-0.011429989213263013,0.02635226877977955,-0.04809442372090596,-0.03749640203776635,-0.0019255343451670117,0.0670432583064977,0.012661632205752373,-0.02327961584473195,0.06390595848377854,0.00390386955405539,-0.018868937280258517,-0.008104256757156888,-0.010657001369377264,-0.003052177861559117,-0.03555979647728243,0.03473296287981924,-0.09971282225955566,0.04165899795441185,-0.0026004023012102385,-0.02591940955606619,-0.06961993461573628,-0.010352975868506902,-0.08490597268783433,-0.0038168255254721023,0.015829876718408614,0.07495880092516335,-0.012817316270916162,0.034989795228487636,-0.03156305428027955,-0.14290660604865546,-0.003903411652362712,-0.04443212293566321,0.028849719396713547,0.03643331098459836,-7.380972062151245e-06,0.019547895541722923,0.07002427043795614,-0.04050174288353605,-0.016061645959776244,0.0364194930281974,-0.27553733417716425,0.008435832368193629,-0.008542422053371456,-0.046114741864542994,0.039014974877607134,0.48718195696758126,-0.07654286511168076,0.050733996468220306,-0.006115267742690394,0.011443545359174575,0.04589917705555781,-0.0038017881424385965,0.012121723985188813,0.013834722423081536,0.033618498708121156,-0.014200391809676013,-0.07686386836688583,0.027798188691984037,0.037249286397652286,-0.06571142682111158,-0.004566738638588439,-0.04686765172656658,-0.09291019409097426,0.06997668631063216,-0.04630077960816954,0.06650038265749209,-0.05347065181287144,-0.005900221489958404,-0.07287280877930932,-0.019877475501731533,-0.024631167233022576,-0.025797552377444778,-0.15978051346321542,-0.07303358714021015,-0.09357319608236123,-0.04570769818285864,-0.003783467106632744,0.057471781452118065,0.02319075367829534,-0.020334153937851783,-0.04756862810638108,-0.039406626696836165,0.015314147189282902,0.05038948066160972,0.06431256637525741,0.005850499621945499,-0.011821196247565429,-0.010364110586759305,-0.04449751600118421,-0.030738520277902213,-0.05717121844179197,-0.0360943191595161,0.05673966367598691,-0.002335856041438453,-0.030663365602937732,0.03606196439230119,-0.04505694154312604,-0.09426796179148908,0.005055657350432586,0.04805599507591146,0.07544460405921052,0.07333030767229033,-0.04506307893455838,0.07667926557631996,0.04067918547030414,0.051053025041543,0.04623200100001835,-0.018218595467444636,0.08345969386065315,0.06906273555638741,-0.039745901598971525,-0.03955767086140538,0.08344525563676718,0.0007773282512293817,0.010040216466275237,0.021058151706529235,-0.04430917410436743,0.07140041056841098,0.06009746824709304,-0.05872507607007262,-0.05088715176547756,0.017610979264411936,-0.02787210692734048,0.016362551738604184,0.02740329724927883,-0.02755598297991832,-0.042793860120549615,0.04219870101011863,0.019646602211957433,-0.08953482967622146,0.08238154271312194,-0.011100516929526863,-0.014930192126943242,-0.09792211924190393,-0.06974007549724871,-0.06673990397513863,0.07065409022037389,-0.045094955004125976,-0.016247415812559247,0.02216792797989416,-0.046959096358563275,0.01750313035245414,-0.0010024250147052775,-0.07505849236064999,-0.02623665971231904,0.04259128451362913,-0.12070605232098504,0.0014888497260253093,0.031103083122458484,-0.012741669624196147,-0.014672695701145384,0.11665277949373024,-0.0643241455459043,0.09581184058890811,-0.000583604032939189,0.07330207816251517,0.03383695869215214,-0.10819136698021714,0.012140800361145515,-0.06931671280145528,0.007529014471076503,0.0383951601121763,-0.08789592967823123,0.024601892564854184,-0.03108727673875568,0.09351252492105264,-0.074804698337195,0.009644020539399483,-0.0695641260507702,0.051926318994837364,-0.015913458422043874,-0.00965626568751241,0.027973195447857407,0.09345193232841242,0.004994604376077221,-0.0741120012492902,0.09048159740284627,0.021875153444357996,-0.07739465827409404,0.08325048395352401,0.08475718007976187,0.0034767272733054358,-0.0011903065103958613,-0.06024761970181895,-0.013644987562393011,-0.08545622631062841,0.034261575815216425,-0.10247006297091459,-0.0369321140018201,-0.018274021086443427,0.0426178416959293,0.09454183603460742,-0.043369712895709955,-0.03316107208634895,0.039719836281482,0.04472949210697134,-0.09100705233482312,-0.08450825494617199,-0.056419261732863095,-0.09693527591429624,-0.04419488286633118,-0.030691466377759866,-0.002751222751494981,0.0474963107174212,0.0925057672622449,0.006336541893796592,-0.11373565988580961,-0.06456658985825611,0.07300702500561404,-0.04441408227774605,0.034554799785324414,0.0537095816141648,0.026143093045915156,-0.04855855332406356,-0.03352954802843644,0.061457185097714556,-0.03921941228054223,-0.18287219903960067,0.02210655481255443,0.024150311878822116,-0.033667310798247196,-0.13231378167779695,0.012396900191916825,0.04458235491040092,0.006797416989658111,-0.0053715481035142365,-0.008113886632937446,-0.002865793912104832,0.029376878836693272,-0.027994704559743528,0.03603409102591832,0.03805706395076804,0.05377538268342982,0.001644447664643802,0.032172190994165226,-0.09664615049221843,-0.04774805047331442,0.013088038459212196,0.033759136833647396,-0.021524569629011777,0.01903914970347856,0.005480736356782514,-0.00498189176619455,-0.051687843709611735,-0.04966864805692867,0.07877654240631579,0.05610023818975525,0.08162006239618494,0.005052356004675151,0.061406521125722605,-0.011925942850382659,-0.03915221723302473,0.015741360869093474,0.009168462155040266,0.04810958010054813,-0.10317199348561547,0.02951418916223106,-0.04759617697100551,0.023722252651213548,-0.07618241912045484,0.009829736465685504,0.045477126110269626,-0.055718096851239,-0.027901821706475798,0.03262329883213424,0.05580667225165186,-0.11276096552274303,0.05911148587317307,0.009498468378665359,-0.0022165755763412422,-0.07202638691181737,0.034334208557767615,0.06492468023603495,-0.04689159487730371,0.037031668994585855,0.010136258106401784,0.03189384372895003,-0.027680780049572185,-0.0010388060744483752,0.02840575254490581,0.03175013971368378,0.0005985282024133305,-0.07426007667136093,0.06676238939846017,-0.030683194484790913,0.021418521825288896,-0.011645697941560253,0.0074508735141443775,-0.025249558404119788,0.02429719922390992,0.004155162469632571,-0.0753507583742616,-0.09456879822796233,0.04863222222904069,-0.023274231964282428,0.023793867259030634,0.06639439603836929,-0.13298340822976992,-0.015483067194880256,0.017364409491743744,0.021717637404351942,-0.07007392392061239,-0.08579524466531925,0.019466300225075495,0.011528089778754962,0.018365519849026495,0.09987192776525597,-0.007997462629946031,0.025730639368492868,-0.022006423188764883,0.05500449091442565,0.01861769502291751,0.1358445483018119,-0.0286970465533326,0.024080413487561403,0.07322804005625252,0.00322312540470627,0.05745846582788682,0.10011914978839646,-0.053731695837805155,-0.04401367767962079,0.0479214667361208,-0.08660967594106926,-0.038559450674298786,1.1068836002634024,0.01581192355848217,0.009841931812787879,0.004796047651503638,-0.08510688720745614,0.10086614799784298,0.11379920721645959,-0.004980573797840379,-0.12639793911731723,0.0002697524537753092,-0.00101227121689675,-0.06996381596629882,-0.0011363503708707219,-0.031475096013750765,0.032412252750753955,0.03838656170007683,0.015281982137655307,-0.0225597151545871,0.028394035881803278,0.0214130960512631,0.00725999657484068,0.004861254237394967,0.011033091641638338,0.024489600413646537,0.018795927679094663,-0.09809400761633073,-0.08723158392235404,-0.000495359017020663,0.012129256910044225,0.012087734697105407,0.053812892637972114,-0.12043932310593615,-0.06999902401673239,-0.041760820518519697,-0.10822822031865977,0.007492543435296088,0.026999899431054113,-0.03220022533297929,-0.023795943070873456,-0.0031160996112874605,-0.05625504197581953,0.04987269688961173,-0.0005721675411304285,0.06907735931512846,-0.0910240277293644,-0.15641623150225767,-0.023360075772666397,-0.10130868263507334,-0.0037484315507401497,0.0006741070679058097,-0.06673924265671599,-0.019377856888239575,0.012111882156319528,-0.08223527520608177,0.07614686781871441,0.039247541176296905,-0.0030387138777454702,-0.04859784722575813,-0.12196496070272217,-0.01764361395416868,-0.07981060243780227,0.02631334896875806,0.002022910400759232,0.06219280126650451,0.039374624586377825,-0.008224714005715086,0.03200467855392968,0.07254529774594047,-0.022902993225508917,-0.03728918586132859,0.008652172055453695,0.1259408547464639,-0.04873330319259491,-0.030945290282144666,0.01004914550321231,-1.291977376328526,-0.07404820415068795,0.044957326201974256,-0.033675961999239,-0.01197993625483319,0.041120338743442834,-0.0752909518262605,-0.0679864173425338,-0.03497685530341185,0.050817618467885385,-0.01986320480230328,0.03412792412554087,0.0015291406440330745,-0.04217194244339172,-0.015745931416711864,0.012417381991659045,-0.10564569748961461,-0.10715920185922016,-0.0627296851594465,0.06485543370784008,0.020445683964883235,0.017688088636050286,-0.08688490655576603,-0.08130381238939892,0.019074759910605837,-0.019884132644521713,0.03374099935097802,0.01759971016336573,-0.10658008182148461,-0.05513423007103702,0.0010980951976604834,0.029238112480258843,-0.009795628980070506,0.017665035880901445,-0.010652755405218595,0.014708518839645081,0.005804474835524874,-0.03717520545646142,0.014646567961816997,0.014966022658587864,-0.11800817483939172,0.10255982670396895,-0.005714951636555939,-0.060488090701540764,-0.038794459084467506,-0.019496860452811043,0.023623596481475453,0.00013484166280790057,0.0315215345748943,0.029051041336524232,0.08978265208038827,-0.006566130238457089,-0.0668154989032811,-0.01141504764423756,-0.008739721027971858,-0.032855609398462556,-0.04523827019958887,0.0012311598816592466,-0.03435333714768058,-0.013988369997473311,-0.11800198213134168,-0.06450692866392695,-0.05749376141182568,-0.05545171731991007,-0.09539713048031716,-0.011998100311633285,0.029615498785370436,0.0054299875991291775,0.016819964703544004,-0.03716144498059767,0.07257064443912985,-0.0653112824555384,0.004258460433974906,-0.0018302590441141788,0.03476355988793557,0.03846881418150942,0.07833124403289905,0.01999827552244478,0.03181002217338209,-0.0053016942087259124,-0.11825509336975122,0.01767544760936661,0.06167269329981219,-0.003632228248580112,0.0050863923322056375,-0.0633073010384744,-0.0075391750945071325,0.008947726038878704,0.021606925066767327,-0.034265066196920047,-0.009411125283843256,0.08839038811942047,-0.03286943812106816,0.05687698685299784,0.046636846114812766,-0.1290861898426704,0.05154648370347239,0.005224105577945139,-0.12656280051716998,-0.03307102549408049,0.04576870304395407,0.06177365933779451,0.07914455152798677,-0.006016588165786454,0.10091296403424735,0.052398839526804,-0.003782312449370866,-0.002991761058625755,-0.030588292388219356,0.022674823274198307,-0.02596833618826848,-0.12163380159755248,0.03036397387822115,0.027800712547074564,-0.08578347882631149,0.022634687849073482,0.0672361105428391,0.01820002210628545,0.019803410852420336,0.05288784718548102,-0.04605169682552409,-0.09267313841575812,0.0056085810580137905,0.019643709366081435,0.025178818314429394,-0.028921718175165673,-0.018894813511644577,-0.02518482405508614,-0.034337934190597316,0.023916473465726,0.011575744301189171,0.06473684606526761,-0.05738014535380716,-0.3313234753084556,0.03894645210866259,-0.016516759071159477,-0.037504601347112594,0.12664543731580816,-0.009485911001817516,-0.012548384968831889,0.034346860272400775,-0.08171762922060893,0.008110667758344837,0.04042381926414534,0.008007661495944491,-0.03361338019073338,0.007515278563984901,0.02185114903926825,-0.06216532509809261,-0.05389416961979136,0.04627376337352905,-0.006707957782424374,-0.1276933652026201,-0.031886049328236195,0.06754326047091903,-0.03069400003742754,-0.12249020167456283,-0.011105511203661489,-0.06524634921834038,-0.03887648642891357,-0.02856089408974446,0.040991905808885246,-0.06949085058889229,0.07242856601654803,-0.033741935627732526,-0.005596665959418522,0.011034624028061978,-0.020292004382788466,0.024624598018441617,-0.09181505495740476,0.02017289675615736,-0.003941196331829638,-0.00625687750669434,-0.012698603508822405,-0.01608706683958765,0.0590638461098562,-0.014249842561814554,-0.0390330538657784,0.02089525179439215,-0.0294249918153604,-0.03526910841663,0.06287531614015056,-0.010925070981930213,-0.05301991467183759,-0.09700134477525597,0.030096137139645672,0.05760813989508858,-0.007975371354859793,0.24616216971532498,0.05871590879523914,-0.03318512288098529,-0.026392844504824275,0.024543516964124244,-0.049836784396167386,-0.0006273343996466063,-0.10209194278622663,-0.045592364135679075,-0.02825991503394708,-0.04977164861100618,0.027939150735034224,-0.011324839407637547,0.03248575652917823,-0.05183773644772735,-0.021081811960723614,0.016850426177766463,0.016103736031955623,0.020772297749470807,0.05722348062419074,-0.18871460022402645,-0.06617973401726344,-0.03183889080497506,-0.003931650582533075,0.04119340135631593,0.006851161155398435,-0.04797875012512475,-0.09566916183278545,-0.10090976695178314,-3.052242647008916,-0.025484006325903367,-0.026918938279480973,0.03303856836459573,-0.11730969907504846,-0.038858527233051395,-0.0276300728153411,-0.006516679193433851,0.0019077601934273224,-0.09814409875885821,0.009451647096931982,-0.0663256709613201,-0.1346997753318953,-0.02584878142878867,-0.036870284545408395,-0.012019544761122332,-0.010999751835538396,-0.01728803766464409,-0.01829952689968335,0.03479470007277525,-0.006146049595296032,0.029137482958739674,0.04474970521531304,-0.06000817452637115,-0.11124506367946362,-0.21136773115416738,-0.05144550196082456,0.06824182571027032,-0.0109140610809935,0.030778713664966553,Celiac
C2,0.01311255497801068,-0.11200795891018335,-0.0026515421890956846,0.03447591523516208,-0.014602329816662379,0.014064882832741427,0.07468053344779015,-0.05760342907558793,-0.023611627581672314,-0.006258848477687685,0.015199399296023841,-0.1006167904460367,-0.005755095114947637,-0.019739403519705215,-0.11640348426145729,0.03762564717308043,0.16656682175266183,-0.05752943981313935,-0.048878176440639576,0.038891267145121595,0.01730162585162575,-0.08502376188147207,0.05423255044595521,0.0003034432073100491,0.017935332757004215,0.03439232855430512,0.06509568171948349,-0.04179699011335451,-0.05382015170412449,0.05993007665544317,-0.061957116455882234,-0.08946887792560751,-0.012278938452556261,-2.398913414254621e-05,-0.03837457906713429,0.07812212149947201,0.1206601527019063,0.008432013266436863,0.006531189132474377,0.02939338239004174,-0.02679685256561987,-0.01893384485031821,-0.04114461793010017,0.04077926565946723,0.00792171133691934,-0.011181189758202084,0.06440505527655954,0.0258892932882251,-0.014638219224481453,-0.027010969791958776,0.00016582833727182226,0.046974024988624054,0.05380097370680548,0.003339600423369564,-0.0654908991771238,-0.006765938441313168,0.03449388327929216,0.029931859748422607,0.006726798507994601,-0.08661199943182966,-0.03799713249625425,0.06919205648353667,0.030601161281726606,0.14709602860084695,-0.026319845673372172,-0.06806368515637796,0.026450765277013982,0.08039694325682974,0.0018895240444849902,0.009291131454162962,-0.0832164961857954,0.006809684170877293,0.10718835757008235,-0.029788645410344154,0.03188987104883407,-0.01426493648844966,0.034998427381087584,0.06309499415462948,0.035854459670288275,0.018656467215571904,-0.0776562561222709,0.02710876170849305,-0.022910745090161694,-0.0723347298461796,-0.02411297781684822,-0.042173220160195604,-0.1031808441479317,-0.042157150331596026,0.004449993262922908,0.05920492088049116,0.012664008076878269,-0.05813227837494565,-0.019686054257473874,0.06511848522176636,-0.05341149078597681,0.03851325836610258,-0.07456055769700913,-0.047770532031061505,-0.04434836960271009,0.06426012144020107,-0.043461728378425685,0.07818787634440075,-0.0687474157426916,0.0024295400509846037,-0.1086814223261511,0.02089753078751776,-0.017635098981331133,0.010643744698785146,-0.05345123209686246,-0.05841550019794068,-0.006300725677131202,-0.012032062901538106,0.08109309370231937,-0.005361061453024891,-0.028469522940148102,0.03593905258789057,0.00840402107578831,0.009132609963700975,-0.0479446406244456,-0.04251821668175783,-0.0030804569575082746,-0.0072771101473883435,-0.005862960357405826,-0.015338715109542985,-0.03554828126726749,-0.07736163809171422,-0.025507251863309117,0.03308910552045406,-0.03280591675304561,0.02226280479019359,0.007901410099519534,0.0776166668113388,0.06458792665091745,0.15117260454714726,-0.029880672839708373,-0.007204035348740284,0.017166580100596244,0.06489613978665679,0.0740514092423956,0.029274468634445,0.03510608998583351,-0.06584829637064153,-0.03136450496210837,0.03604719691584051,-0.052845824435706026,-0.04839818769056006,0.017465431530055076,0.0005784006980598575,-0.05460859771197372,0.04137778307081998,0.004936856684388613,-0.040954765895401424,-0.05297516512745171,-0.002285670251160832,0.013933239857743624,0.0016965059455064729,0.07262219813150245,-0.04048563319882871,0.04945698542051859,0.09915966312808677,-0.09783777197293136,-0.060340464372368154,0.07922005231150393,-0.030836725991976236,-0.06060560438463292,-0.03963299560754985,-0.08681472891589469,-0.06672232086102003,0.0034573618948540836,-0.03538281492420421,0.0009072844821567883,0.025148010706361718,-0.01005585875309024,-0.011702949671837623,-0.08968844178408765,-0.025317695699129058,0.059314728844198694,0.05719154843408873,0.07756444227589143,0.006095833060294145,0.05626079251295114,-0.02955818510370551,-0.044516913646901995,0.004410827080096795,-0.06400118446588052,0.023532199389556415,-0.13428331233391141,-0.0007215136514222424,0.06565262289054608,0.047403690535716046,-0.08360950613319743,-0.05240691599661441,-0.03268091675492703,0.013985846518247073,-0.026380282114668415,0.002043068276726395,-0.05420882181038671,0.0198778818081778,-0.006256057396581536,-0.012183620305805162,0.014011958733134907,0.05519315403216435,0.03930072765786086,0.0010331729299236875,0.04298882926920905,-0.02856993343359145,0.07569591855424804,0.032274876160653686,0.04698684319681945,-0.005453843931207293,0.0001320717893352087,-0.02200819727040664,0.02014941218084119,-0.06607343747403947,-0.018477655453833116,0.02269592374403742,-0.01527202292546467,-0.01104088950366038,0.06511552537691961,-0.004270037222988311,-0.07559094217094894,-0.019036669900890608,-0.009807625088095632,0.02102567349861946,0.11102217433184244,-0.04437860466315407,-0.14401771759541115,0.04982353280189216,0.06694878664544995,-0.07028898377809524,0.10037419832212885,-9.060110895033276e-05,0.09967636301336519,0.024065478917420956,-0.0888720744791339,-0.07992266702278195,-0.018529641692574043,-0.08716765366932124,-0.06254707056758714,0.028200905283783544,0.040557269880982676,0.0663083271943471,0.013289466540763259,0.011890890316484923,-0.06325041858929957,0.12423183438310816,0.023164963707131545,0.011987932242513431,-0.0578117112030109,-0.11294730301662485,0.008593362523952437,-0.05471763262002124,-0.0035787554810412514,0.00957043543048541,-0.02560265458623674,0.03994237967527035,-0.06661482548770362,-0.021920968024794832,0.10927256135169658,-0.032963467876454586,0.0362232614359845,-0.006641298541343309,0.04194081815170297,-0.12130364969137998,-0.06271628389397114,-0.06710399346871956,0.015677538282606204,0.005320849615590442,-0.07670893470137051,-0.042477285642806076,0.003157462357426457,-0.031227078166516743,-0.016429853688660314,-0.11986383151076158,0.12223961387121934,-0.05147600608108768,0.03363426113465222,-0.02990199001768737,0.024000994570217087,-0.02530556454958596,-0.01266384525559186,-0.007048754795600316,0.07166640017617779,0.026829853300509774,0.012699281598082052,0.10197500400198897,-0.04207977165481728,-0.03994982134556441,0.04363815055102792,0.006334188948342771,-0.08381048192474182,-0.08696800386636641,-0.050806424047529136,0.008990195895585798,0.033440560225445184,0.007641391694542253,0.024101233320633443,-0.007530956815582464,-0.06971547344652324,0.01478630824275411,0.03315763701801096,-0.03912827933661565,-0.048412228856567256,-0.013069692081501633,0.022084443490907303,-0.0007987350929250226,-0.09065459599551838,-0.008707938431643544,-9.406042693122291e-06,0.0788459900959315,-0.051624602467146,0.06505100680805295,0.010634437193454837,0.0017700926170509579,-0.02135002699477932,-0.008890882767315957,0.024981856194108584,0.053812968210931976,0.028055835946025624,-0.0054877294289870275,-0.005902854985550505,-0.05337052871890765,0.04525745470818743,-0.0034658645574251463,-0.030276961159058924,-0.11145205774661222,0.04645262069889023,0.007079176016857162,0.03550811835118963,0.024935991647651347,-0.005649713691330793,0.059188478280114275,-0.02852808287985887,-0.05600107753370695,-0.06213033905041036,-0.06280827670366129,-0.009121737552145745,-0.0010890981030232574,0.002801864873238636,-0.019289904218517468,0.12612321692144923,-0.06427298344963762,-0.005802114742039598,-0.012608877137851214,-0.03302302859083048,-0.009269771050041984,0.04875607802010191,-0.02315749773365638,0.0741066362144314,-0.014065408574058514,0.033855244716415205,-0.028232152246696788,0.08639710221227802,0.021541498003010553,-0.05120129522785453,-0.04274225461985978,0.02521279893677767,-0.021197206048950153,-0.037481520416965675,0.018588272308421517,0.013771153279968737,-0.046860072873880755,-0.015556304695301204,-0.01997845493806648,-0.07614036201724655,-0.05579111643576581,-0.023076071228106797,-0.022860560088704684,0.07794270738212455,-0.06497030367178533,-0.08187731032866513,0.0284576937023593,0.030409706522891468,-0.009106559791158566,0.05959274372190702,-0.03347538311531754,0.02752973731120377,-0.07641878094688553,0.0705503184401663,0.0021136440281024605,-0.029458729314291103,-0.0014175563518172547,0.21494941172593443,-0.07633308002327996,0.01684293246567366,0.011623716053366175,-0.02571379460282306,-0.050559079081502804,-0.006349096832834207,-0.015068127031317402,0.040702859731819536,-0.0792192025396092,0.01981352444605898,-0.03653387517904235,0.04703899496846662,0.10425955270247476,-0.07172652042935472,-0.004981154622395544,-0.07500017968455616,0.05326483321181891,-0.019019635150568107,-0.0531953819576349,0.009659323329549082,0.022155945047980654,-0.11881870930081058,-0.050084418058625464,0.024226182680588963,-0.052337224857204004,0.06302171959015876,0.06269208074387833,-0.08263256904495865,-0.060925336603718155,0.04893668347171622,0.03904105003890206,0.009680030621834455,-0.03944168406530034,-0.06168105962499214,0.017073204684942018,-0.1127199369187,-0.08011324445281656,0.06623131849730234,0.031073557484312158,-0.002345500130387894,-0.08533027812800106,0.1320164727449889,0.01189719415891577,-0.026808800984924445,0.003981633421866116,-0.06612732834749901,0.005748207235418875,-0.049861855764484354,-0.03225181983594108,0.048899666921822904,0.04488192295756996,-0.04500745051430569,0.004120770013726692,0.028461282803137273,-0.0016584147011501713,-0.003448946262342542,-0.07992173919331384,0.02304335770479875,0.003537589125647352,-0.0886762070407148,0.023251490089388063,-0.038683286133743326,0.005829352039240707,-0.04294077739112093,-0.03268213588865287,-0.010852821771183935,-0.010071021711997214,-0.01405991635867332,0.024853425834581104,-0.02973693727950282,-0.03285043074409856,-0.0400897819167213,0.02349488808908242,-0.07120755933089278,-0.009524565514278492,-0.047741487935324525,0.09388351392295284,0.06157642727521702,0.03065733719295671,0.007241441764013884,-0.06812844269976803,-0.03774337290113674,-0.05351583042646501,0.04353340057856517,0.06411738096502978,-0.033476277953133585,-0.1804071369239094,-0.02425205738501306,0.008429133261596706,0.035304164954751395,-0.06222125142044827,-0.042456577575420616,0.0025527353111049807,-0.023774851718590756,0.0904210768940279,-0.06514098620311366,0.022565048991394106,-0.05044761014712143,-0.06852281318309678,-0.05265237935842401,-0.07051354844857857,0.03421999460896065,-0.004879391140211401,0.04467646921838268,0.027861996681606237,0.036469858179476115,-0.03120749476737666,-0.10481322855293675,0.024842710594174987,-0.08042546533796659,-0.07578059160347203,0.021013201076975397,0.05297748087054036,0.03731048598111951,0.029861617581535525,0.03408250239791465,-0.02059643868334694,-0.02854234135589872,-0.10120590934994624,-0.008270784705559756,-0.03977384592061257,-0.0218967968869067,-0.055175429902162135,-0.0064291587519409495,0.0327519751232682,-0.05033837203492592,-0.0008198670537297546,0.017602030748121684,0.07856436208740714,-0.019794149328153533,-0.03654301193338958,0.03178350424268309,-0.005770210728022857,-0.0568933498270527,0.006149030732109001,0.03632767471342421,0.0085284975637488,-0.0274083447686307,0.02076352455282409,-0.07206478011045642,0.036109404570263647,0.008328733490823479,-0.05163662629234994,-0.06670394726588989,0.005697508635422491,-0.1069418349674195,0.024883312646941366,-0.007746613225374007,0.08471707080222034,-0.007226001711717981,-0.008517673279559622,-0.036886279515629096,-0.17072126936353432,0.0006422933322407945,0.014129668715434572,0.013903936459168011,0.003605799304108154,-0.005803180922137286,0.03340419229104051,0.08285557796788331,0.01598931039160721,0.05290544138110561,0.024212550625237125,-0.248814695379512,-0.02361495828051309,0.017466576253588596,-0.01404882905065688,-0.0106537729004439,0.5011588722704853,-0.03642344020682473,0.03776153570687978,0.029126551890171656,0.021009751354916287,0.0426331754450212,0.0204042068584573,0.017527261231334003,-0.005553058496702258,0.024076150515585967,-0.002001389323203939,-0.04570123866306547,0.037191774868362615,0.061037303203365735,-0.0594345400062322,-0.053644226123813,0.007067112750088384,-0.07846931108881607,0.03923756668362572,-0.07655383100431633,0.07199178301346441,-0.056452319694788526,0.02869349290965761,-0.06181456024580359,-0.02501044001601669,-0.03870061939553041,-0.053763242654593764,-0.13729353476869935,-0.07628337071331028,-0.09224465704231363,-0.05365466951181707,-0.02545165932532096,0.05493992869203121,0.013021089938703129,-0.028872379839301094,-0.046646444014748656,-0.022355427979065996,0.0007580585522721967,0.01835242635693648,0.0073678260185158165,-0.007290663767243026,0.0029599332324330846,-0.01970499056529799,-0.04073344757983699,0.011991962891874788,-0.06411237723654721,-0.005799213105869043,0.06495520192422463,-0.02960707220305251,-0.028213060020732844,0.009864832546383182,-0.020804437888645347,-0.07358343131235401,0.05279628990839284,0.04447606754121445,0.08436930566515156,0.05775153672342891,-0.05119452129562302,0.07822384913662062,0.021035964025146268,0.04920014556398698,0.027789243342175484,-0.017176243924337756,0.10558113078351361,0.05262596537635962,-0.024228674636474046,-0.011075340959568023,0.04822707518135437,-0.019355389131235596,0.046271248144307116,0.007738930746787128,-0.09126617027139976,0.041941296493980706,0.07808680178563797,-0.0057139370688350675,-0.023003984880585145,-0.024959121655156423,-0.03581313181732677,0.00970186820248905,0.03582048169878645,-0.0008011748223098139,-0.06653545447692216,-0.0032457803696822477,-0.013175659943232776,-0.06183997818003038,0.11075115585070915,-0.027270864103457353,0.006424847753021033,-0.08540838300047926,-0.03737474604826575,-0.044518073829231626,0.05942640161915897,-0.06319914676466633,-0.034068722785871974,-0.004689940724008194,-0.0896240076143024,0.02209339733201311,0.06516245780483505,-0.06055533476258312,-0.022316554315308282,0.0296970426886093,-0.10245824063757343,-0.026257737228354165,-0.004981755216347758,0.0025691236970413187,-0.019787582753641397,0.11662192301810015,-0.019665460285384264,0.1094482493999906,-0.004742543129339472,0.05845732354839719,0.040633532013992904,-0.09909192217610566,0.01813300284591618,-0.07328789394359077,-0.0052738561695580225,0.00891596321283992,-0.06690038284733671,0.02975098336591215,-0.045367307287714945,0.07098465133106109,-0.06464587835169322,-0.004721272964092105,-0.04947968603852309,0.03203790791837828,-0.03033202077641005,0.00401740626130806,-0.0075557817842704334,0.10533409385391033,-0.015614296630567178,-0.0839860497667148,0.08109461146786184,-0.004460593035245432,-0.08163316795863594,0.05460796114985037,0.062052852902371204,0.04154024360406452,-0.006611410892387578,-0.04251272429664082,-0.003815223777157217,-0.04270695648849405,0.025325256316668807,-0.05947456540160126,-0.03621063511995577,-0.03669750749213455,0.0021753657505789474,0.07668916032633145,-0.0734646162730913,-0.03258978599700717,0.07321290679863632,0.010736483639002547,-0.08362370459130268,-0.091707617070058,-0.03120459003324486,-0.0873350386775611,-0.05321382023626149,-0.012843660394400498,-0.06259760242629636,0.00776341030443505,0.05016618362498198,0.04792286800851462,-0.09443717010583384,-0.06387881716934339,0.025670920700958094,-0.02404753392804611,0.041623197554187405,0.05760449292331653,0.037019485100686866,-0.059918721519732605,-0.02652392944606901,0.01924520788140166,-0.06562614150158406,-0.1243350005835131,0.005852944191203677,0.06204033565862311,-0.046499406326707064,-0.0760318498215518,-0.042156795529587884,0.05113096533727035,0.03691188152875687,-0.04160806871467934,0.045590538208068944,0.017730869290833534,0.031428454318556766,-0.03238200151773113,0.03749163067481845,0.05819726832604204,0.061411781330224936,0.013604541377740448,0.04689624674027807,-0.08281248353551388,-0.01954685754524471,0.07477839417209538,0.04113584301075412,-0.06455070625934227,0.05653532235839417,0.0055245157492787526,-0.008596159596177402,-0.03571195494323999,-0.04435681428122531,0.03175214039347552,0.01566186526204697,0.06898096345327095,0.012245670737446642,0.04938198559457302,0.007980409060083746,0.0032411010198396114,0.0012969942454677287,0.003342798545434967,0.05957253409979171,-0.10514336373525374,0.03549997552700198,-0.07101652106056383,0.019885450415252758,-0.03719013580983587,0.018270712602027426,0.0605391451596059,-0.04354498513645654,-0.029397352389289273,0.029330859492023523,0.044651115966578746,-0.09858521464943994,0.026176801407032324,-0.03780922557767817,-0.003839075022938872,-0.0625721383113822,0.021628004623327375,0.06315227359443329,-0.04995277969078617,0.03189243290953552,-0.0233382091728047,0.039966396663285574,-0.0006524582996460214,0.04356423953568851,0.02019483063581572,0.03386625976696689,0.023007394300149493,-0.0074005028338396854,0.07831439767477207,-0.05294497530854513,0.008270186047019762,-0.0077103909582944075,-0.023168964526306325,0.003082946281967554,0.020845604095853128,-0.008389580390944494,-0.027789451936042642,-0.04716244648328178,0.026973134390233862,-0.02176706553768546,0.021841517280753935,0.03471662725065428,-0.12317521175841903,0.011362888729996848,0.07128643485938684,-0.018249591691122252,-0.05160635524415324,-0.08128624369183303,-0.013731172401241932,0.022500340180152446,0.020740943742805138,0.11146911038792431,0.006967129765507025,0.04262318602235042,0.024516055901645864,0.02659887346025738,0.01800179883239532,0.12458734705404316,0.013281855205340075,0.008924523568846824,0.019874851651315167,0.015151185852261542,0.06587760512466828,0.08053399288389365,-0.04898937907278678,-0.01794597920670908,0.0708797476710289,-0.06981475598358036,-0.06970665249586147,1.066191544099629,0.02526138339234689,0.0035511879036601666,0.008261817665696438,-0.06801478560007998,0.09893153263096673,0.11140676035930726,-0.006018203288706399,-0.12766215955080884,-0.002783547627717729,-0.015924714021098237,-0.07241051525253189,-0.040862469188573516,-0.020899567938546366,0.03419887921562682,0.04576172062650467,0.01650007654549875,-0.05239407100746461,-0.008621261314360905,-0.008722129698531391,0.009923743927505694,0.006838710509152098,0.014539265250284344,0.02931284648887073,0.020386746892998502,-0.08054822918965834,-0.08750757643532567,0.01900289895678181,-0.03099054174690098,-0.009059909334619481,0.04557974246231014,-0.12157078299387875,-0.08838003606907689,-0.05720280717645146,-0.05261574952425311,0.019885708916314783,0.010697040283292164,-0.014213534007124004,0.007795229763213955,-0.0359551960599447,-0.07659226437055207,0.062289943668157016,-0.011253731227468764,0.08756644243653022,-0.05637691594048471,-0.1560921242078712,-0.01496057263962649,-0.09999029738821873,-0.0003197553003292962,0.024347685383907844,-0.08928096092061572,-0.02571798103113441,0.05222972442872914,-0.10715803496908717,0.06928540688867885,0.028137719962967187,-0.019400415235675282,-0.0252875283850237,-0.1284711955041339,-0.016072733374256885,-0.06445557255306515,0.05418830713637554,0.009231602512941615,0.04214310378071829,0.03127743755829475,0.00034493994719535524,-0.009312619507111972,0.06727118987275808,-0.02659138548054218,-0.03137948844968851,-0.023207689102176902,0.0802056468356947,-0.08013672147631559,-0.044800422499028214,-0.0038044217353603014,-1.2128318726380318,-0.020358829857350737,0.02206840807158914,-0.06927249783734422,-0.013496471398688243,0.021690859311475446,-0.07902104000712523,-0.07332886133120052,-0.048928603227158536,0.011288076063721269,-0.021319587339388258,0.0035827678089710682,0.04732870956816455,-0.06400616836050817,-0.01623774820358759,-0.016467001798071503,-0.1262158452309102,-0.1370076397918485,-0.06618412955476843,0.09610917433781334,-0.013446542414569619,0.021998293079981652,-0.07282977366313814,-0.0950069991897156,0.014836060162582381,0.020701901553344528,0.0067673429638699,0.01044735189032335,-0.08761030299356341,-0.04669367102843272,0.029908118002652712,0.03957299884561742,-0.021112906366019646,0.03389022542293809,0.005343723815598454,0.028792447912230155,0.0019116272353597802,-0.007459463234666996,0.03376624178819917,-0.06070148096428454,-0.07855694712856569,0.10794344705235262,-0.018573739832084293,-0.047610850633206254,-0.07132557758316085,-0.01929076944804154,0.04243933127395651,-0.058404946582478925,-0.0003830797658478322,0.015822413773263898,0.10083039364231082,-0.02897347073317926,-0.11180274341041002,0.0011332466103153686,0.028051026272442006,-0.06046277751028763,-0.00045414165857978085,0.007737168126313221,-0.011467778793356332,-0.037114588889938765,-0.12257096633415741,-0.06226613933722054,-0.09109196711879612,-0.06930695604176523,-0.062395822202273646,-0.026605133785019695,0.04132703879733559,-0.030382633964658467,0.013375049415523357,-0.06522458363543725,0.0340386370727109,-0.06571443445987289,0.024070110079251816,0.00556774821317228,0.0430991787306869,0.062122703009189414,0.07101256149310829,0.017640992140050004,0.021733786873139063,-0.039351624456407115,-0.06847889943972171,0.027032988819513187,0.02190562365842564,-0.019461563200149662,0.005408393634632049,-0.06298324758011353,-0.0020252052928711904,-0.004861687821577092,0.01608915560653109,-0.06408042815396121,-0.06046305507687283,0.07671355801807549,-0.09326535980731196,0.05992387416072239,-0.00647989397738803,-0.13095332820246622,0.07526672553394764,-0.0246671184810097,-0.07402604119941661,0.0006516114478982536,0.037675647620790634,0.08077044013309403,0.07531833494784002,-0.007490564592487487,0.09695195187766774,0.04571467159736096,-0.005303397253309332,0.014780481117518007,-0.02973373380721727,0.023925224233454924,-0.03087900156166209,-0.12964614883021444,0.024289507717865297,0.05206780654546918,-0.08279704360411064,0.04930363903730749,0.034111413332857436,0.044585153451534694,0.029570117413022103,0.06062357661636714,-0.011305692123011891,-0.08041358895143645,0.019827260617881502,0.00580776239247441,0.04353764855653565,0.013699625622117973,-0.004447586655253775,-0.07173858330679707,-0.003708086535835362,0.04927549219240051,0.0012452376760937016,0.09596214839247531,-0.060768126490887746,-0.3101532963862674,0.03299735238300599,-0.04877978512434338,-0.026277926378467136,0.10737586181861646,0.02609075648253059,0.015317663800246307,0.049300479606139064,-0.0685755926181777,0.02186178241641776,0.06594057008172757,-0.013923286559041265,-0.06915828733774666,0.007035121628560012,0.013093146334235861,-0.05557954385101902,-0.06554891208240683,0.05768093895200974,-0.018828360679869195,-0.08955119092127893,-0.013563175419924535,0.03134100736917385,-0.00348854988860246,-0.12085278745924581,0.00540710001618052,-0.04760587092374961,-0.050819127627231946,-0.03165765005151052,0.08402391708368959,-0.08634722483470378,0.063666038751521,-0.03063886735078466,0.008095439025756658,0.001171864112342502,0.00832288559762153,0.007950038712878336,-0.0852006534371243,0.021434016308746567,0.008995312566326947,0.010676504607521396,0.008142806505378672,-0.02440907912013141,0.05001451658523957,0.009130392308964657,-0.009236381246644996,0.04762016657653418,-0.027227202169393935,0.01211940546024386,0.06948314483852618,0.01170700192007546,-0.03913963565117697,-0.06184078203020495,-0.004834741984622739,0.0705882370645537,-0.05200999168830555,0.26983742119822746,0.03897081577372221,-0.024310290882655506,-0.02502945633502559,-0.0029507842735840358,-0.03179071148758387,-0.011335309532429763,-0.08727381740580586,-0.04686887335882669,-0.06636443388592296,-0.08180491719054067,0.01750725997532056,0.006830927613784989,0.04860012235703263,-0.08047884576091557,0.005596197338760974,0.013114433896385778,0.039624061541341106,-0.008454885917949458,0.04140662187779821,-0.20948284602958595,-0.015224246981473908,-0.030931459101796486,-0.008862069281134368,-0.0102427197195682,-0.02354537434388465,-0.0555046557499089,-0.07897856503176506,-0.1020820982993984,-3.082937907918263,-0.034307489982023556,-0.0115845799393284,0.016385238835748654,-0.08325254767439343,-0.043852437133183576,-0.012829720510569267,0.00820305652136723,0.01395823577898634,-0.10079882579518047,0.033558503774253096,-0.05941317676779392,-0.08168707217400821,-0.0046853543811766684,-0.056930619817657395,0.018467627520291182,0.020744455023657658,-0.028688353681241657,-0.03974425546136661,0.013318782662425872,-0.0013969836659718158,0.01709773665841079,0.04286346741700578,-0.06863958699593052,-0.09243311059203468,-0.1699147914119114,-0.07598337774758733,0.06614088255947015,0.02157498813292633,0.009652871365243782,Celiac
H1,0.030278876278351935,-0.11128467525501098,-0.03462668704662008,-0.003969768451309109,-0.015232022026269899,0.030639378927341344,0.04552661636324573,-0.0575215371336167,0.004599466614463579,0.030927656357326687,-0.001318398314776407,-0.1232981252338697,0.012418105539037856,-0.00884988211751489,-0.16076353569345783,0.0628351358599515,0.14377520508376374,-0.056275178250420825,-0.016970910337319893,0.020688843463297194,0.02914704182144149,-0.07036966226509987,0.022629095255063545,0.01410667438377242,0.04024759885905588,0.04279604875358475,0.11317039316289335,-0.019264308748459743,-0.024106821144450057,0.0642040952433032,-0.04727687129813842,-0.06152257386641828,-0.043939609925022036,0.032592524996395894,-0.04111669567126755,0.07748815719560588,0.11643063350908824,0.009927612124927834,-0.00566737044761761,0.06474879584079415,-0.0669002417585949,-0.016659195491712592,-0.022654941624450618,0.010152339126099206,0.04166827840517729,0.01977130613499611,0.057616594396378396,0.029803881980350683,-0.018133854932893528,-0.03659161322750414,0.02077279169797651,0.07508428372094834,0.03994353277933835,0.0001799017497267197,-0.03729290220156794,-0.00636837141148648,0.0306358740462361,0.018857700804697314,0.053510709707059824,-0.051214408394709254,-0.017511023589364204,0.02697476836444592,-0.0033109141364629033,0.16141495063820685,-0.02577881704155268,-0.11215052160885923,0.005075914290449383,0.08192076133822884,-0.06079258148592081,0.009270426747146003,-0.04057793031035136,0.013317562270609599,0.08208569643033604,-0.003317329302552814,0.06747489807823559,-0.012607544257846545,-0.014610063996039951,0.05590275920227176,-0.009919128480470543,0.023185856859037655,-0.09060348668883336,0.06990027989101623,0.022114754188803445,-0.07290360582012168,-0.02851574673909532,-0.06435838266212819,-0.11049142834595235,-0.038741680195415414,0.003206938610797414,0.036089552931416045,0.06796908376140358,-0.0335863059514545,-0.06908604834968599,0.11089334581997973,-0.02731213395015503,-0.010502464530199832,-0.015003686892090638,-0.08424418786513065,-0.03202174955415202,0.04248720114155019,-0.057276279546239185,0.07093861691629036,-0.035436930517440034,0.055317617823194574,-0.10255467767867331,0.004743197585302485,-0.06280885169777463,-0.01953245553558785,-0.030185103903610445,-0.030517476373561267,0.021119205947539108,-0.06035586582321632,0.05760513099620564,-0.043279026675143654,-0.04974248507098412,0.02614727632143924,0.0816440427528729,-0.016062125248797497,-0.05328987203808815,0.008830830297732297,-0.010131818256194086,-0.016769495160716918,-0.04917053675505611,-0.0502043871893375,-0.00851538860443299,-0.044588149041628694,-0.03988695715761298,-0.010514497048511628,-0.04866524171840696,0.0054298836540480145,0.010841868940781985,0.04271895313728217,0.1263292917015971,0.1719918622364374,-0.049569272431044455,-0.0032794535373492813,-0.02468178518968736,0.05405471357211898,0.022497358649236604,-0.02149957485229428,0.05282521782269122,-0.11994242142704918,-0.0693667717433407,0.007529077873576305,-0.039413845173843276,-0.05575426390349147,-0.006587762047893595,0.009620641013139936,0.013965877473317881,0.06949744300817992,-0.0046468935519043434,-0.05364997851270103,-0.05047933924893054,-0.019638159825271083,0.014797777807769901,-0.016137856928203412,0.03199011480935888,-0.04215219534946425,0.06177364016537096,0.07092057183496873,-0.10373254266503296,-0.050261358365455304,0.1161595071949907,-0.04640741800044229,-0.06151287504768886,-0.010533817023392716,-0.09160613909146562,-0.07276290030720044,0.03737122553978841,-0.04535914182952848,0.025627119927539462,-0.03219839375028308,-0.050040181565538286,-0.006991277116081122,-0.08790859338627023,0.053949026597315194,0.07163456570892344,0.04054836459833192,0.02014032087591996,-0.017722192448852796,0.06854861469583015,0.005264346885492927,-0.08550475389249113,0.0216409832389026,-0.12720605570097127,0.004574502348539327,-0.10396929598430962,0.05755648405037316,0.13264986523854994,0.06110453506297267,-0.055981281115770325,-0.06436817119139521,-0.03143194659493155,0.05668234407201352,0.0037778218387852966,-0.03399605694779026,-0.06172460388924409,0.015286678153487915,-0.04629596674999188,0.017113126750056076,-0.041831609792782894,0.04232659208378654,0.04996089422163258,0.011823491606643062,0.07433639892858931,-0.09230665750577827,0.09032512603439413,0.03636144252394372,0.07664051617754301,-0.06002451377345361,0.015539680446885482,-0.09211507779079905,0.048172050504048,-0.028848496422217675,-0.001192197810593375,0.04465940304080297,-0.005886284512812354,-0.02606408237033091,0.10689588716528307,0.0014162642552029746,-0.0848389214966892,-0.0018991435587000169,-0.046044811599285376,0.0008788124696200608,0.12411420154768582,0.026057383846432317,-0.11952271714435862,0.024715575385239427,0.10073639069458001,-0.08947387681646779,0.05702952469610292,-0.008959343154423526,0.050565742576986476,-0.012239088776647287,-0.08743636908176104,-0.07987280897664188,-0.009236517636564356,-0.07000608209758848,-0.07932586730424133,0.02630870120489102,0.036090440395823556,0.07853348285454453,0.0026596367578411357,-0.022000059477674326,-0.11209671482036844,0.09246124468091263,-0.010856206880673552,0.06226252512405171,-0.07245314633814602,-0.09472538462878824,-0.01025707516782677,0.00023371335959276665,-0.037059931682208655,0.020290893255901638,-0.038738546927198414,0.004100584122201454,-0.058004367100544026,0.011822792612963916,0.08427185179492311,9.547665058610787e-05,0.040942441502070055,-0.018961575420976626,0.04911062376297718,-0.11880230026506844,-0.07726570143507504,-0.1114392093913392,-0.04712904020909228,0.008625852249809954,-0.041755324297536756,-0.05014947338135423,-0.04469300380454353,-0.03283830562081646,-0.04641899691809769,-0.10136038698411358,0.1639508746296941,-0.08118659218514568,0.04988470997366097,-0.07520057526770323,0.01304610841958839,-0.020417179534259186,-0.019978332389267363,-0.018706039142737538,0.037857202706912285,-0.008239845510491466,0.058558357716520196,0.10013760377314011,-0.033026893023348824,-0.02027427982667078,0.06651191854820264,-0.004487412305796857,-0.05545006670172046,-0.06963149867527227,-0.035163110114245444,0.023871165241189672,0.002031056888669089,0.02302767743474362,0.038915604991925465,-0.00271753973375545,-0.08302527313688356,0.031225223861992276,0.028449973733401388,-0.0022174685031071486,-0.02307885743038736,-0.009131808453294744,0.01966582901573813,0.0034599271190015207,-0.11359058013986818,-0.0022275139935119146,0.008261310171103431,0.003513168502454614,-0.035513398365537775,0.05335856894801251,0.034746771444347256,-0.003337806522288964,0.03995926848626897,-0.03146818797282863,0.040398897021224026,0.05605196288722612,0.014262009323589606,-0.01485204043188461,-0.020695448246495166,-0.09878937738906507,0.06668820493430302,-0.019348533346974124,-0.012685615103295961,-0.08393108052698157,0.04161211039537705,-0.015809815060080074,0.025926127710495857,-0.013969119792334629,0.013827664878684214,0.05425663373661044,-0.034889984299586445,-0.0653689925889689,-0.05760006284639581,-0.00016583633604022312,-0.05939780752413554,-0.03010827869030184,-0.002019307405528714,-0.0331164393815082,0.1392329362851445,-0.013014864577125909,-0.0033898884387437893,0.01264009102012263,-0.05646861867275647,0.032280951390264254,0.02248218183144685,0.0006625876617867163,0.12149670433310798,-0.04475779355849197,-0.018410417434742605,-0.02519022571334166,0.10694504360554503,-0.025601600990081505,-0.046494654880249286,-0.06333042280595741,0.05809026188972604,-0.06668561482013799,-0.04596933053127438,-0.003284399723683539,0.03740839994282812,-0.039843872606885836,-0.040911365679274364,-0.03510085176021126,-0.06984135883697364,-0.08103665626766943,-0.0018911757157825501,-0.030941624097702552,0.08247691077359134,-0.07519370914287646,-0.1082211048093037,0.05554742926586632,0.03239492990489589,-0.023635044116531317,0.035766359076583404,-0.04136277700186108,0.0035439134533080106,-0.07259887542315566,0.052465840569286805,0.0014039838272118085,-0.029934790332540477,0.018735309185613905,0.30936474295724187,-0.13080413718345446,0.024649420419504426,-0.04144636342147524,0.0071207900173670775,-0.03199505648373024,0.022565133017886305,0.0020377577740591348,0.050636629860965586,-0.09272388339527919,-0.024160451874226718,-0.021673499697192945,0.06643942323006252,0.0871592136207149,-0.060499771157951326,0.05103415376918506,-0.14828491772864627,0.0229885981255567,-0.015029225339941658,-0.034430056371347474,-0.060059505681641034,0.08056589106181172,-0.10229567045894812,-0.03971112764976331,0.039779344264299646,-0.0540944670366461,0.05292676054071798,0.056586251178985636,-0.031139301841549387,-0.028731746847753082,0.04500230554422867,0.038121654851518166,-0.01847513635871996,-0.03310527437656296,-0.025465841881048504,0.05957034263328122,-0.13078206970272097,-0.05605661676107348,0.024050693090965355,0.03980090690425283,-0.013083472269799003,-0.10072659769382727,0.14805324782408313,0.014568597898931723,-0.03637450233911315,0.011425304873430403,-0.0540078926245785,-0.00904991405491139,-0.08809002133204664,0.014267854398261956,0.021911510130905358,0.03273459942637913,-0.037365588997528815,-0.015335054905836776,0.01753012860769233,0.01670758215195217,-0.002252776387234156,-0.06237345063020771,0.042139721719542,-0.03351402861251462,-0.07509266429307233,0.015456360475142067,-0.046399932211896734,0.07698828262578959,-0.0171808116282241,-0.017944551752233563,-0.052720348006887956,-0.0067496283319937464,-0.02122844048080694,0.0305619739597699,-0.09073224235336776,0.048636624798671965,0.002097525410207538,-0.005337686123291871,-0.07656564790628528,-0.06588552171635288,-0.0425041851351641,0.0874578135349569,0.042034886365656145,0.04717235706557293,0.012933768004721818,-0.13022585835260098,0.01690627233729052,-0.052863613567792296,0.02894378793929973,0.03511137173816106,-0.0861534478997803,-0.15228058598326855,-0.04643397927916326,0.029172855927566504,0.048718216221196556,-0.061927532076581034,-0.09320994387409717,0.013444672328211544,-0.011202481594809195,0.021867570627898007,-0.08430432866655399,0.0577318419059542,-0.007826259337785533,-0.08237359958549771,-0.00876500953687208,-0.08969680659607064,0.017179562447696445,0.0033640598427491972,0.029375105433544362,0.006700686651199781,0.07102205797395217,-0.05746805202548521,-0.15381214813567687,-0.011090120072091769,-0.07658633575642673,-0.05846378034243756,-0.014601557864737165,0.01032258380748981,0.01255568999980108,-0.005070042305491381,0.032195514328783675,0.007252964137637874,-0.0050319548533014034,-0.10232948033950313,0.006779607062452933,-0.06317925175987038,0.013611231259456989,-0.07075912244814314,-0.007305461788743806,0.0560281330602552,-0.04887028214228122,-0.05325925689021998,0.0021726568006547407,0.05368146572114466,-0.013391866850682608,0.008286144041746156,0.0701496364693081,0.007332339038113547,-0.01797761904485432,-0.016312625069550328,-0.004096415808576643,-0.003997910549874784,-0.07493902400127937,0.004461692465200101,-0.09932949745620974,0.05183071196147874,-0.0065473646666644415,-0.04909353416379111,-0.09388289657431535,0.014761358276859305,-0.07955540978709752,0.010346815764473383,0.031489558324257566,0.08081500733882879,-0.02220430112830573,0.00541073361793997,-0.023229781740396315,-0.1707106527703904,-0.002203457755792192,-0.03703925423289674,0.015020268753807605,0.01264743130101335,-0.00654988196059946,0.0048475075378065354,0.06950925936342403,-0.03776354079846392,-0.004188134376519047,0.025762984640404645,-0.27521896265725876,0.005792031839922292,0.011006689310812433,-0.034243852819742265,0.05735472469598952,0.5752944345553996,-0.09343556904572249,0.023880877124343752,0.01558557100450904,0.027602886409468817,0.032020309692654896,-0.0030605122573192497,0.016112466321552762,0.05263702568652054,0.028785074701420145,-0.014532177287603153,-0.09604117606078419,0.035665925764271016,0.028797994793899946,-0.03144390365444381,0.024962153130582813,-0.030339373923346288,-0.09793995152043602,0.06055319866741,-0.04623612142249051,0.0393822425675927,-0.07437923940134393,0.03580057398282914,-0.0692306381653277,-0.02907332203191651,-0.01192002159228375,-0.0091941608240507,-0.1693469666002197,-0.05533569463849417,-0.07901111789097347,-0.024579707016112222,-0.014430590940434172,0.06661055152117458,0.01981295551531739,-0.012867831552764239,-0.0945718730070245,-0.05578118828714416,0.013646180024375822,0.08337054684884063,0.06178251120617543,0.039351238586439866,-0.04172742417637908,-0.01959782765211577,-0.05427771079394456,-0.024020444532694443,-0.03847124818765455,-0.038426013127759576,0.050755972304854825,0.003872483117254014,-0.04418467000164272,0.06571120994376577,-0.026809950406382694,-0.11865610414066417,0.01345831387106642,0.050204092885554163,0.047466919254742945,0.06520088323703059,-0.05920242069735964,0.07367071620178131,0.03129573210634174,0.06356143558438161,0.061821247950504477,-0.014933730519181341,0.11996260739432482,0.07469223399992227,-0.027859030437280004,-0.018469020613245565,0.06393631492170053,-0.008483298685191145,0.0038495156228741255,0.005014133499009802,-0.07206566593104968,0.061669877011040555,0.02600891426853811,-0.08190433539534224,-0.040786004747988,-0.0005206079168781646,-0.004572790919654149,-0.004919677140320238,0.004069550706094981,-0.02577180973036441,-0.0491399488583593,0.03983559187561602,0.005927831678941845,-0.08631283276508163,0.06884723692227819,-0.015212417128604648,0.025592201947298464,-0.09677484137221226,-0.08534240242383606,-0.07106596518535406,0.0799363942102197,-0.042851387742292885,-0.034856772843844516,-0.007741751819067213,-0.07215909254794524,0.025873960031408908,0.00018576099492851112,-0.07014939788386057,-0.00838451682318168,0.024946070440527685,-0.08021052741644431,-0.016025840525483018,0.004804204444533209,-0.02786022175345293,-0.04024541797951614,0.13352546857157344,-0.017753707230160554,0.11884503751577827,0.013185853790634444,0.06878346133499696,0.054364501585412374,-0.10875749595335982,0.040106347352917016,-0.051765425383936796,-0.02848261808241964,0.034151037242408144,-0.07886817488318912,0.013431910493433648,-0.05528239358976964,0.07712905029950279,-0.08112028998476559,-0.007455513302272605,-0.06470545293944532,0.06485312690776525,0.003866862048140358,0.0154749903084182,0.03754758403412089,0.07233373056923771,0.037495370784547066,-0.1059060803556706,0.077013784816915,0.024279822038958718,-0.10798392440379127,0.08227633061159541,0.10918676536625824,-0.004221811457108669,-0.00463227825558146,-0.0705336195761259,-0.013055804497340291,-0.07574600064766773,0.006872317107794153,-0.09902139460647288,-0.030764795195588474,-0.026906045718687495,0.014789197311083963,0.08281664167332296,-0.04782933630736099,-0.038628791364987695,0.032892654081174415,0.05483077319497549,-0.08789123600344768,-0.1043067801269106,-0.06242046876684739,-0.11839996856461044,-0.04318806344440358,-0.04833334162744039,-0.003820840722713182,0.05100304363387865,0.0843833242075207,0.008877886730065995,-0.10207802641314517,-0.08009555492563293,0.07547277578590417,-0.03208465771588794,0.053354882696890316,0.05780800374498225,0.035430853587202805,-0.05495753524048505,-0.022808833229073684,0.06761030365872824,-0.07094789555148487,-0.2169665112051132,0.02830742187995577,-0.006920370097124556,-0.03497073936360267,-0.12382108050833023,0.015372895773007943,0.03662302358950894,0.005807427723779787,-0.04283758639349349,0.02352040386136268,-0.004252626276727395,0.02598645936193353,-0.07146394301453304,0.024221244743643653,0.021429376955809532,0.032998654078712525,0.024836738372597228,0.03761018400468954,-0.09790094788386869,-0.020228483991058137,-0.005335506077927496,0.04928421839953512,-0.0335371039134614,0.01573184544388087,-0.027448327625547067,-0.026299648556939326,-0.034140794908907236,-0.03932959363867298,0.09950602349124117,0.058150687896675005,0.0855830984659608,-0.026765266279867635,0.08309525629771505,-0.028453238977181345,-0.10094303880385094,0.020764100067099205,-0.014855945140470339,0.03575779633063152,-0.11237843346431807,0.022882434179175935,-0.04524038531635339,0.007420199764361332,-0.08970614824001723,0.0036548360098375525,0.09332687346706439,-0.04565311253634815,-0.04088420288781631,0.04637694273953258,0.05415759102676992,-0.09981020538747677,0.0610661363741903,-0.0003192959355343282,-0.001673042010444482,-0.044624079662676695,0.058683405975866146,0.04528018035275393,-0.04246669326251124,0.04393987135706693,0.04485072728833301,0.003469007607407808,-0.0063114434071478275,0.03188999459723492,0.057360348833121515,0.012786209311232718,0.0064438091846070475,-0.06129240016477005,0.06148746148070813,-0.03886869208451891,0.013238070990362009,0.0017268986598900627,0.027531361335137738,-0.04774801758262177,0.03139226326357656,-0.011763067265214299,-0.07901045518941745,-0.0844595970998817,0.028723889065665708,-0.014265382770858932,0.029814575383475917,0.07941369899361687,-0.14717191809548757,-0.04295029459028822,0.012304482827187426,0.013172459524628949,-0.09874267688176169,-0.06143163781255366,0.03830599242379416,-0.036063655777395134,0.021596566082929695,0.08794919446469496,0.017468796972501435,0.030688568989807333,0.001694931781183708,0.07279771478657529,0.012349781134829357,0.1395653918703735,-0.03691766509538584,0.003136669672925233,0.06264689353140104,-0.03656245022343414,0.04580022036392192,0.10683523427474903,-0.04826138792713199,-0.045536441068308266,0.038002994283737705,-0.1096595742929471,-0.01612191570850566,1.3498190720447862,-0.0017678189751357105,-0.010235358117655772,0.03532133645333345,-0.0858052755123272,0.14062453067922934,0.09675446163799223,0.00026648022077428263,-0.12660264203300828,-0.01952308045449248,-0.009091311140619542,-0.05915267233300727,-0.016785469822608416,-0.03635905492602118,0.060064901753383464,0.0199152963930022,0.010714610959953016,-0.007858401400023968,0.003242146472553152,0.02973250779673534,0.012909879361053303,0.01154289878814607,0.019827857903391498,0.03351512803007808,0.0290875007828119,-0.0758909227848741,-0.06429835824810377,-0.023731171107442283,0.028115830385761383,0.02186799251354369,0.08082721340306777,-0.11472585908754605,-0.10015086418875849,-0.01674980226308467,-0.0867314582787274,0.03470079617117319,0.027913354928234477,-0.0371359209002164,-0.016040777028115235,-0.010986810731620028,-0.05562337779965338,0.07375532054285723,0.02356740145754538,0.042371245638203145,-0.08393850187050533,-0.15286541991211763,-0.0200378195901827,-0.09491899500493663,-0.023244050319740115,0.006258693216426905,-0.07571495400770153,-0.029103191906343584,0.036875615458818324,-0.06088053550737148,0.0799904747216985,0.06288901195508383,0.004074763657238212,-0.045387400875617205,-0.094062074056941,0.009483133174030184,-0.07788006628725368,0.04275775947617678,0.00954752973845731,0.055224943106774206,0.057622398174595066,-0.008459380712176357,0.0375525163889084,0.035991365790721735,-0.04107686589492344,-0.03506131014911982,0.00017724160547946593,0.12111613018116613,-0.08171716942485212,-0.019860306917863106,-0.007866091363702773,-1.4148570197978705,-0.09449185621913976,0.040210373201348994,-0.03989972204186953,-0.010532305520686328,0.0433489814126052,-0.060634810918273684,-0.06391230292920398,-0.04131919803904157,0.0478471370440611,-0.0466414109957061,0.01832065566027621,0.007530689409698833,-0.07202420921290434,-0.018950035755391552,-0.010218993863848926,-0.10712862556571404,-0.1500319503215491,-0.07738185946844635,0.08195948789080919,-0.012353547805738111,-0.02520739381485851,-0.07902476954933244,-0.09544721575216071,0.0042049275888663175,-0.009437213407942725,0.0442080056384967,0.03768857448924742,-0.1233498592797448,-0.06008375758182187,0.016253493022898396,0.020821176058124204,0.0007433225344484198,0.009831390855350853,-0.0004330045079859844,0.047363240264591856,0.0020629569343904005,-0.048696190402468316,0.048313156231902146,0.0014618932015258747,-0.10181060227202975,0.10980348385641372,-0.007539035316589996,-0.06292750933202425,-0.030540310681378906,-0.03263001974619774,0.03680465937546797,0.013624331894677603,0.05792148730188693,0.006509828649160007,0.1342744662511205,0.010786849384777251,-0.08726600092497212,-0.00300337400876652,-0.010904346393949703,-0.0315955215934122,-0.03541924487556143,0.027501785868666893,-0.05155808450910681,-0.021710022309172773,-0.14269529868446848,-0.0699104165105104,-0.05898341438605904,-0.044140587595130815,-0.10623064877211424,-0.039074607616923274,0.03076875470043593,0.007310372882136168,0.0326765152695082,-0.0026605884183226298,0.07895600988541981,-0.0508033915686492,0.010115618905467045,-0.026284512594282574,0.045526320169767286,0.034285520282084675,0.07138321981348487,0.03869641351347529,0.009051245297638634,-0.006488397430962481,-0.12938055236204665,0.04839754181437806,0.058969121128296435,0.0179657192118484,-0.015617184816634848,-0.08604621903209735,-0.011410290351367414,-0.007856513992849586,0.0421481027226888,-0.028037012791735625,0.013412675125922714,0.1194911361208315,-0.0324304571715229,0.046467078820938985,0.07155255391868345,-0.1611041705732584,0.09350359384409836,-0.029852877718347808,-0.15515210956244718,-0.00971349581322415,0.04498396798718344,0.08655400825730944,0.06466909505857901,-0.030181332359274296,0.08705075042851614,0.024613466576348993,-0.04993404560589488,0.0113068581251289,-0.016409361150230013,0.0068027092528769135,-0.0426028891316314,-0.12790364687574785,0.013461009145813304,0.04757079125613318,-0.06801432336404167,-0.0011539049815237452,0.09484278687184722,0.024545125689059828,0.006999580726765033,0.04442730700592243,-0.03073210623010235,-0.10633821914088219,0.020149712474226127,0.014912406898425892,0.029747829545045124,-0.014887086100789421,-0.024431339228855233,-0.03985571839635761,-0.04445764824159059,0.04078077133295978,0.042599149019300946,0.08950798720249163,-0.10242901010301791,-0.3681213430446172,0.02078010828106581,-0.006305263299837604,-0.032299760601430624,0.10520809880936284,-0.015515150851180767,-0.010351640191438567,0.032265269934446256,-0.07830217502395809,0.006953827245391128,0.03249017594343127,0.006007541539168666,-0.026501501825074193,0.004792414240062752,0.030072793809165794,-0.07005691953846781,-0.08803596870011322,0.03627052306625909,-0.015690182672591684,-0.14897803427890824,-0.020406956694694507,0.04354031582911802,-0.059202696704289674,-0.1279663711411526,0.006987520879870982,-0.05727208504834257,-0.0785701625577011,-0.028988996482225454,0.06791660104114197,-0.09623012561329491,0.04093925382132043,-0.042393678749913774,-0.010401575080759928,0.02868476319646882,0.00874408261198589,0.028458394227797834,-0.08991492800908737,0.027876847422158527,0.01899406987827514,-0.005577674546156261,0.006321441051648927,-0.05632434722273044,0.07202606038661145,-0.024707531025715903,-0.028184161448364643,0.0233097695449471,-0.021218835935026454,-0.01899401584620828,0.09822145125825756,0.018237039843190805,-0.04279952415598175,-0.10575690013745141,0.028107291747346122,0.04417505179574024,-0.014209014330822663,0.27318012433422834,0.07620814293583489,-0.06794039226731012,-0.01918856794438888,0.0005876573593942877,-0.06539736703932753,0.01810590856970027,-0.13678386512786378,-0.046356725141265674,-0.03781672575015109,-0.0398569022824966,0.01841998715643468,-0.041609982409058645,0.06674225112030083,-0.01526382285377497,-0.0316446436538835,0.00010932414186935939,0.00908244471939978,0.03484234751047676,0.040377647204355584,-0.2014212763955349,-0.0482419775161472,-0.03436359144918118,0.026242978925495018,0.04892997401460301,-0.025982483442193678,-0.049229103109089914,-0.0601954886826123,-0.09147797450407301,-3.0238027241507517,-0.049755913082144325,-0.033100977583331415,0.023132663370000167,-0.11803158300454707,-0.02373925205784132,-0.027178928797261633,-0.032619966186825416,0.007901839885717932,-0.0898714240540561,0.015565160696439075,-0.07999344285796688,-0.12120425754159202,-0.04231821374689522,-0.00581566280741761,-0.009685143383319841,-0.0244747141183108,0.03545699378255459,-0.026408895852226805,0.023865015291360148,-0.01204632798773703,0.05039271686342697,0.05280221157869934,-0.06877963860175866,-0.0890422137533598,-0.24586875262726549,-0.061687837546728755,0.07399077702434849,-0.008113254619871895,0.029556201253490757,Healthy
H2,0.004607314421246684,-0.0980432578758365,-0.013311555253511994,0.0030172240774770367,-0.008486001114676582,0.04029525696451061,0.05741880262623541,-0.062272768180376026,-0.00032312937541710123,0.027835931049024633,0.017293139646231904,-0.11528014167936718,-0.009347590913316597,-0.014074010998785053,-0.13905368827857142,0.07677928043656707,0.13098647499497904,-0.056418167956978404,-0.03256018370723115,0.02530429311790167,0.022537660860634783,-0.0670297907731186,0.02658234048423873,-0.0028865428213758998,0.05940813292344448,0.05151035745615953,0.0929427072700341,-0.04875194126720216,-0.051007194150642095,0.07022000233171656,-0.04724105117456139,-0.0948928968633723,-0.05595533069199508,0.03150703552431337,-0.06554013676386813,0.06572037123885828,0.10752682503234559,0.013592320562993086,0.0030774467879202353,0.05346977520351572,-0.051932442982176585,-0.026696231176696096,-0.048322805205410005,0.011365386886678666,0.055190061024071625,0.021203967620802767,0.05757690573054149,0.03616060772334814,-0.034284318632392195,-0.04496084920535847,0.013985875867901856,0.057777804012410006,0.03084318789427658,0.005904703674250057,-0.04180036948121258,0.0031488463490917016,0.026048425319301627,0.016741119383814323,0.02157707175247249,-0.05777193983897878,-0.0160867495580144,0.050771540269087964,0.02877266957199526,0.1369452400132645,-0.03440320292346249,-0.05988989059263603,-0.004564100276207162,0.08296331386068681,-0.053467980954824745,0.03536567069102392,-0.0323726589262069,0.003491978984547272,0.08870966798632134,-0.0210014767183831,0.0552573934008238,-0.011398483562954793,0.003551930921794714,0.03674752381164134,0.0009447808344168245,0.03128000717307626,-0.06545864334043273,0.05295189957228312,0.010008990666949697,-0.060530504690482004,-0.004514272517988007,-0.05475257090665498,-0.09307124502667677,-0.03141454216060553,0.01812510057010144,0.04049830644664437,0.06369852879415176,-0.043491062321393326,-0.05366958787740622,0.09654965577983005,-0.06451324628833137,-0.0067538457639856,-0.035295254393491474,-0.05272852435117791,-0.03442651497616466,0.027055787818396175,-0.06562279840627776,0.08973678013232285,-0.034145281070761466,0.050337296083321395,-0.10161548779302768,0.010022487974690603,-0.07263045792214035,-0.008455211786545283,-0.04328138217524385,-0.058208312685935584,0.0025569385878177336,-0.06300075361055096,0.08531302893609133,-0.0021899911900578437,-0.03329165183645451,0.0124042010207715,0.0798816829439712,0.00043776980604975365,-0.016112166436264116,-0.0008898862679359227,0.009006737672270178,-0.009471621097781735,-0.027707921573347727,-0.040179737867128425,-0.021866630900540546,-0.054659351278662,-0.029424643327672147,0.00701350884645969,-0.041132722279719494,0.005983176260761842,-0.008039475047586776,0.072332985369,0.11230140318291018,0.150408439623759,-0.039762789390436815,-0.016659691368969304,-0.018860808406193634,0.04276607664722317,0.043207821150112166,0.0097148431997734,0.07739708119080807,-0.09738923175314135,-0.038021322578608074,0.007094482220143615,-0.021189272415550967,-0.05124070038738832,0.024959256743994223,0.009807830538070102,-0.02548556562525635,0.04552425030567071,0.015154381062171896,-0.03960146211711309,-0.036444986774329294,-0.015386571739646249,-0.005082616549194013,-0.00919726346841638,0.07013523376468037,-0.06135415614995547,0.04285584356084937,0.08520239976053619,-0.09583889316481621,-0.05131141585484852,0.12101435912599659,-0.0432259745566114,-0.0764322831500216,-0.023362012605646573,-0.0970116326632304,-0.06963630519758697,0.017020880039610647,-0.044165182511485414,0.03002652946609745,-0.054587872651301814,-0.0660910938661351,0.0012007959345870028,-0.07135335346464076,0.059614533071586207,0.06315969572998939,0.052344937407663134,0.023405061210475368,0.005573908902816692,0.042403251852088854,-0.014800338377866616,-0.06216901145299791,0.03192455606194941,-0.09358166846842061,0.009295063947802254,-0.10342080711690413,0.052100678153574456,0.10745686501411521,0.053847808898426296,-0.07639220629018473,-0.0323136527298094,-0.05111794446506326,0.030806759932682958,-0.02331606177909246,-0.022120705871327966,-0.06243617884549412,0.01194848674708867,-0.05678449490218681,-0.002578117586491664,-0.024634597180079813,0.040166709666942024,0.07714116394129178,0.018434419568321904,0.02635931131600341,-0.05648783205761311,0.07878935342164835,0.007595404777428951,0.04301287888667753,-0.02935284656495396,0.05221327722716956,-0.06337050245099438,0.012807840920552387,-0.02778451783729441,-0.02779312322842592,0.026902891283768472,0.004826382563137742,-0.0006052377887324744,0.06457854640543918,-0.00011857204167032973,-0.06963971360995036,-0.00764515286697177,-0.026198372758637744,0.003080994178432361,0.11093384880995605,-0.020319618024807126,-0.11765760613398143,0.058866694004249716,0.10631099931378173,-0.08733447306222054,0.07241867793695056,-0.019086948921175826,0.053985347930527096,0.0010797997215866806,-0.08903865217344828,-0.056738751688470423,-0.003169710161908867,-0.056784588481911716,-0.06961849272423361,0.030179451749764497,0.04396237205680144,0.09292368566010231,0.02492397091611582,-0.022716564217598673,-0.10016244278594354,0.11299969317887078,-0.024646707381573322,0.03451218297935051,-0.06631881350950475,-0.11464025430636605,-0.028537013684368135,-0.03676208029402061,-0.01903753000122736,-0.00024765502093615006,-0.033351577426841604,0.03319269335557939,-0.05157390902038905,-0.027075858665409246,0.08684925360422509,-0.022562629232826637,0.032469752655746,-0.003786705231333934,0.07238538361726525,-0.1323940800747234,-0.044178653459984465,-0.06923456755513642,-0.02893449544038537,0.015657594996012884,-0.0400047326238133,-0.041678832787834026,-0.04436466094875136,-0.044135657375690036,-0.04486419531016131,-0.08563274041260137,0.15945521900466086,-0.05973186878621069,0.05509957419882087,-0.0626582696910989,0.03869039075801004,-0.017057607517779464,-0.04476330276238094,-0.019855192723857332,0.06501616868526336,-0.0024142580146913604,0.039347928563519596,0.08436475264912845,-0.05142906431624062,-0.03641662579748977,0.04361593243449546,0.0011803048494134142,-0.08916083997338575,-0.07890408555983516,-0.04575316058712226,0.016769373868751006,0.018557731889668624,0.014529476144688993,0.015187750202566125,0.013916387045901044,-0.0690850629765019,0.03491053027076658,0.03887592947083554,0.028148227094866203,-0.013125125116439826,-0.007360899588532247,0.019614461834675124,0.013407099012176772,-0.1138489104472626,0.0030381959087951876,-0.009360332385954339,0.044161986170557214,-0.028999767496216654,0.06630103030953012,0.033402341367338766,0.010326280511322585,0.019428646956425124,-0.02583790140668448,0.023044453969477265,0.05025044251450246,-0.009183516552790583,0.0007599280498408489,-0.02440959158228793,-0.10259967037034293,0.06445047618142782,0.0023684784600738916,-0.04154676237021366,-0.09922192340460352,0.0438892571308435,-0.00843791737159541,0.01570829848157001,0.004414621145474483,0.010732405055680523,0.05382504027480375,-0.038833430621538136,-0.08419422807141107,-0.04453577085008696,-0.00021794707420291776,-0.06233396777418719,-0.029333240516240037,0.0142535362227302,-0.035518130535564796,0.1432196790316673,-0.01746025680715252,0.0004947728476161424,-0.017009560847104015,-0.03458081520326952,0.01854207137820381,0.02208881815028325,0.015605718091712486,0.08556157754767658,-0.019962733051721297,0.013652427748884899,-0.020727309998058545,0.11047939154279897,-0.02283404576633763,-0.04190956901335752,-0.05764921937477738,0.057621842546952254,-0.026823657362349377,-0.027798153311447613,0.016733335875326657,0.02024680080638285,-0.04919555939339087,-0.04783092441879348,-0.04408762571218056,-0.06935179452443918,-0.08226266304923892,-0.02012942642237484,-0.030092943980634786,0.09205614104764798,-0.08539418346859758,-0.07746301324744297,0.06403935123733384,0.03794615878372101,-0.0328101711971641,0.0323661182631852,-0.023568389880402614,0.01731097671313149,-0.051392405764291785,0.036702693939564345,0.013942684405231191,-0.04669999323826506,0.029778747274179233,0.29850115996522736,-0.11604822362235696,0.014846821618146457,-0.03335599938763007,-0.01022148818140394,-0.04114362955684862,0.01301664543346533,-0.03253153882992156,0.03762980025688632,-0.11415527160164457,-0.006702717356889542,-0.025795458282807503,0.05005759196551043,0.102234721114241,-0.06344718685144562,0.024264251234881584,-0.09703976670943919,-0.0023356552314242707,-0.01976083162269212,-0.023553413307377983,-0.04011573614142662,0.058857069288166954,-0.0825003242921277,-0.04804540225356404,0.04739530771343456,-0.05050092522669913,0.04821162068948787,0.02893028736203562,-0.028494166486755266,-0.02603259591609447,0.03414684081294468,0.042695793530753125,0.018349253936504925,-0.03324364141277302,-0.026921492144156102,0.028603225156630732,-0.1379737562291171,-0.05048604438406054,0.023400333920531945,0.028555374906876336,-0.014958875332464571,-0.08345196558469634,0.135398334789712,0.034724558344080524,-0.023585801158743935,0.02135434145158488,-0.051924446439899775,-0.021240435257993465,-0.07192005903891437,0.0015001046483645321,0.015808845210884995,0.06052296311591587,-0.011820958696270088,-0.018997900536720916,0.0365167834591601,-0.017878863788303723,-0.029855529746639065,-0.07394233489911671,0.04540188023007181,-0.030527146243573323,-0.08161230628300266,0.026522405292009665,-0.030491400164533475,0.04215989944614854,-0.025295830434592593,-0.04099551973431414,-0.018151403358822964,-0.01729959369105248,-0.025413248947391814,0.04250955578553486,-0.04861691350167904,0.019106796465364152,-0.031319629344295566,0.006732390452859985,-0.0643944144821366,-0.06181042569840887,-0.06040818396930087,0.08649870650848522,0.05843038941643709,0.036193187747908244,0.0036044573665773016,-0.0865248332505684,0.01856103686998958,-0.0631446769252823,0.041124510933671844,0.02767287896783384,-0.09461587692196476,-0.13426649576297842,-0.00309950566132607,-0.005833505630023873,0.03611176888650947,-0.06257642540522433,-0.07324558437181035,0.023065275559746874,0.0028736007474908488,0.03972477359044505,-0.08391375052595794,0.05482998215219515,0.006115095543018568,-0.0681242394393149,0.007295050687035297,-0.09199984041112637,0.013311428275441455,-0.008245658850133005,0.023315871535388593,0.022524752874012885,0.07762394982526677,-0.03865194691076425,-0.1449129607159909,-0.020060533084649716,-0.09750924495433934,-0.07139976016782285,-0.015341979252108999,0.020845831013090184,0.04021349023363926,0.01248727685672952,0.030385571062988063,-0.0214252949155236,-0.006814763384335733,-0.10106250023743084,-0.0024493818334125617,-0.06433717745432815,0.012753644247464798,-0.05065677613810156,-0.02155150380820216,0.0037929943199014778,-0.05027691509979216,-0.037399023684920256,0.010224483116218454,0.06837020184158299,0.011310911850651952,-0.03426674507657995,0.05330678279133079,0.0014289584392122015,-0.016057063204350984,-0.010457692104984009,0.0073792498424324554,-0.0006428845030327586,-0.036388603670256155,0.024964017542556272,-0.09366307684392573,0.048002922630100225,-0.0022124119372065178,-0.032390302306562334,-0.04995430298021826,-0.0003171972202637362,-0.07621208928576544,-0.008764036705791303,-0.004903765542874005,0.058355644257857144,-0.0217609251154568,0.053860221160860935,-0.027420789940561765,-0.16576135468914363,-0.009732164811812638,-0.043176812724623155,0.005170471627967222,0.03359495502019382,0.0011442017687430845,0.03245590753919155,0.06691553030833138,-0.030254341805891465,0.002266795502983327,0.032638368892516104,-0.27954007752671467,-0.015080780547015726,0.000667548785555324,-0.05207031102693634,0.047002632056373055,0.5395119711243418,-0.08624474350014873,0.03955990730897234,-0.010519532325502273,0.014794460811513716,0.05043575679302255,0.0015174159378364912,0.0037524860566011176,0.016501293664178476,0.023631813367904812,-0.010246259574446703,-0.07218710524612751,0.02831676544780413,0.021852924608221656,-0.07285895569044203,-0.013760097793384728,-0.05224761947147631,-0.10824045116848806,0.07934757801580333,-0.03089082886707105,0.0535915173398909,-0.06037795289677664,0.0010448785110678286,-0.05770782736550769,-0.014164987949398826,-0.024933595657032397,-0.03241064379934767,-0.15361208007785523,-0.08784519556793861,-0.0927531258052823,-0.02014256718310212,-0.0035362959191347102,0.06519694942750333,0.010474701094017621,-0.022980856600363586,-0.03911612161685089,-0.020508432597072752,0.02279010142277213,0.06713679006418681,0.06659982925251288,0.00437947205702463,-0.03113333094214674,-0.004993750534882014,-0.04060454336342024,-0.01943712872125775,-0.04068958063844233,-0.014302961584565826,0.06095998771099356,-0.014457378694667488,-0.0395795017934407,0.037800462269609286,-0.02954625533691758,-0.12335193522821107,0.026243260319029443,0.03815711607483536,0.055646542125493366,0.05362761983134881,-0.029770325355520082,0.07725065831160895,0.031200330685990717,0.04858047942392838,0.06313755864674278,-0.022364714411339807,0.10539106189451118,0.07068007893257598,-0.03825729843205538,-0.03798840694947954,0.06770370250573834,-0.016102795549649225,-0.00551492855529765,0.012611303185182077,-0.049194714936584505,0.07256242152331376,0.049206429924398255,-0.05275605398051516,-0.024006007921447005,0.006827083653520273,-0.039320556712378454,0.003733470803168151,0.04715620784193539,-0.023009362249589407,-0.04910511641704093,0.05933258502220121,0.014961928499777377,-0.08836060443917867,0.07063936252050151,-0.002308658156533156,-0.02559186655703619,-0.09097771301716559,-0.07494675770746306,-0.06110224916871221,0.080395391526356,-0.05969362335818568,-0.03558955641975256,0.010749220166021865,-0.04573481759394581,0.024591897477937913,0.02006446334726165,-0.08970384362683213,-0.010724746578533914,0.03883855689849584,-0.11343527244520653,-0.003976343909494809,0.021888129337630922,-0.009491835611595112,-0.0008509875437267905,0.1244837883237969,-0.051140876358142795,0.09779118358169514,0.007359560332001327,0.06859382900911405,0.026117808402843216,-0.10329391526898903,0.01336168249235051,-0.06317722206120689,-0.03487130466699867,0.04380771680534738,-0.0751856739086654,0.026614719564135657,-0.03841046907458621,0.09603789406513262,-0.08321123901310004,-0.0077690781834365286,-0.07305855640367828,0.05489494544315081,-0.004678653028298787,0.024407970035862824,0.006080254171870861,0.08043642523033791,-0.008813958987022167,-0.09708090004437515,0.09062362012792156,-0.003894257127095983,-0.08308263633323229,0.0672337602317912,0.08732206994125312,0.011122990183202728,0.01071943455191455,-0.05119230203817204,-0.02195822843518454,-0.08031168378757295,0.02423348767716351,-0.11273609035281737,-0.04633044890466541,-0.04586401251602027,0.044019822744345585,0.08834220876452557,-0.04303145954542933,-0.04830784687936548,0.01818449116133579,0.033843426294761274,-0.1008086688582683,-0.08597164398993937,-0.0440612751300936,-0.0976027077439731,-0.04484952138196533,-0.03457444335643899,-0.014941105359851839,0.04175188532769998,0.08914271281909701,0.018796208110116425,-0.10404912461062903,-0.06712864901504073,0.06238407133288651,-0.006728063392927624,0.03276983871259235,0.04789044259953562,0.037142903359455345,-0.07197817584017525,-0.026206814450086775,0.06473388467543426,-0.07098048651029747,-0.1880788751217914,0.020974951313650275,0.0158029740732114,-0.03727263348707332,-0.1376834744012126,-0.0038483849339142665,0.05428333842718587,0.027370480010001134,-0.012183678280340603,0.006436356726720538,-0.007199046583962675,0.010559468742773514,-0.04926741375218164,0.041424780088442595,0.02739296279453884,0.053402225526574455,0.009947539989007333,0.032466056846817165,-0.08546443955951118,-0.044407086193910386,0.0038492421796920235,0.053244815910010665,-0.0068368594493711625,0.02151952531777842,0.0032158279049383097,-0.0025999574180898067,-0.06934814073068209,-0.04401871772630788,0.0782013533176279,0.05133680889228874,0.08117513194857712,0.003884199761167677,0.06403041627108223,-0.05295973010735506,-0.048045196207374255,-0.0037620536528793864,0.02467174099840053,0.06304603114712694,-0.10320699113327661,0.046696603295441265,-0.05083224849107749,0.014874210356120311,-0.08451964478411747,-0.003019537466995453,0.06835754019614192,-0.06722445273451004,-0.0231691822351878,0.0495148185847535,0.06010512634162202,-0.11639736837163318,0.056372121567401096,-0.00032803834736055325,-0.007112876478862891,-0.0615067054861584,0.06601233239130258,0.03469574458399835,-0.06684335972798029,0.03384874348747253,0.01728423083275627,0.007281174565764874,-0.034256065232292535,0.015544706999808639,0.02391283915708556,0.046811133820011085,0.0009027339893558166,-0.061785436152845395,0.06477799414909624,-0.03331763153524718,0.024006648628334216,-0.017161514275803147,0.012708547926116332,-0.014332590017552292,0.03510425166776052,-0.0041345258769573704,-0.09739193272087535,-0.09137978449760686,0.04275366709816332,-0.022785245299401666,0.032875194269779084,0.06914376896010553,-0.12067286494705569,-0.005775587746627226,0.01135359565919136,0.023963121473530257,-0.07609039101242138,-0.07614429631466464,0.032049833015737404,0.009346395882701098,0.023237342602784577,0.08730440073585412,-0.0002676984224177719,0.04162715517718473,0.0022863104020389735,0.06933929118186813,0.027281448875858736,0.15382784474213718,-0.04252891037617185,0.03419923380766616,0.09217308378132152,-0.007811436741150246,0.031017890489189088,0.1351045171845017,-0.05178584232896287,-0.0569682542363849,0.04320352626047158,-0.11221999838691815,-0.024265655607047746,1.2158295207223095,-0.004309282439770557,0.014668117502006157,0.014996550042745168,-0.08597898309292534,0.1167613642952065,0.10737805407889124,-0.013878210614649679,-0.12754203121246682,0.021998120885537133,-0.01940705885024498,-0.08172241737353543,0.0045954353073084505,-0.04165180728119433,0.049587260583298216,0.017342707133217505,0.007384465421502809,-0.01890400218881148,0.014617494168537703,0.033355901645740565,0.011609920436237969,0.023990465668093975,0.00424027274743274,0.006650917884688442,0.040870724927730105,-0.1016798594224896,-0.07148491773056272,-0.010589183874655267,0.025921237611221674,0.0007538059850215991,0.07641193181395396,-0.11206888819431603,-0.09406299838185676,-0.051329043661036,-0.09389805833709548,-0.0004960660056731717,0.014832320003249905,-0.035281054974332704,-0.02228980874544695,-0.03323351240381698,-0.028785866535601553,0.08024523040554349,0.013690344532098012,0.07839899348816598,-0.0934248003349697,-0.17125283344278136,-0.04789252642032076,-0.10815859811731716,-0.011813820358481261,0.02992297478567704,-0.06033984586491284,-0.02741406691269333,0.024041014616752617,-0.07752402491409681,0.08660275362275331,0.03194724911032489,-0.007934429707580902,-0.043151493672931036,-0.11824103667943918,-0.01569753749792459,-0.08496696582817734,0.04637750356226544,-0.007224576469503032,0.05915917032257597,0.0313614427546402,0.0011481381043448276,0.04046399879956669,0.052069457815671086,-0.03359365709659227,-0.052781883050003225,0.027816581372624292,0.12441258594327965,-0.06383479346823494,-0.03351672794161311,0.02150645275255557,-1.361113853613812,-0.0802224459271078,0.06930252196590728,-0.039965843800959265,-0.006517302709596248,0.029908741370647772,-0.08456710628941502,-0.07142533202963244,-0.020577735116505815,0.07354961357212822,-0.03990027688884426,0.013884655790945624,0.004971780698082607,-0.042956652919141344,-0.04051508403464494,-0.019476544819339713,-0.10417604754027492,-0.10699830758837098,-0.07809101861922887,0.06310326377955325,0.0018977484359264875,0.016952261273353492,-0.07779500565777378,-0.09765983756621105,0.02917459411240841,-0.02083740546165343,0.044650338310555704,0.02980389972549261,-0.11429526682915118,-0.05515428058049437,-0.0067859953356535045,0.03113807641069094,-0.018414777743749527,0.02326598471643691,-0.009180274578564135,0.01968464356821012,0.00887716354165214,-0.04156284694956176,0.03012174344375862,0.006613926320904207,-0.09565054081341229,0.10910453783880258,0.014450735249094241,-0.0655979691205343,-0.04180917724378079,-0.024908381287826794,0.03294682227452539,0.015092122990198863,0.042806449936788366,0.028302831495722307,0.10247207293291531,-0.013092322808831566,-0.08092525533167488,0.00754758947459822,-0.007053623342546229,-0.029299840686570804,-0.030336007852530697,0.0181473794993238,-0.033500623897725484,-0.019785486888862825,-0.11727269238651003,-0.08409482422769421,-0.05710370107836586,-0.07573665717344448,-0.09319176335450531,-0.006959655631386419,0.02439723980204733,0.00013016319225566506,0.012031691886842175,-0.026823714197589048,0.049340407437944295,-0.06410097190676393,-0.007509113547749071,3.430020826825204e-05,0.02713580896337192,0.03316692525487779,0.08767570038583933,0.005051699600625275,0.03234048039273077,-0.005558967953873569,-0.1310168857486292,0.008464387976684728,0.06489618288361615,-0.013022533441697803,-0.007628149534670708,-0.09103814639553505,-0.0067481159386922895,0.008780881989801611,0.026721129135854036,-0.049913756351258054,-0.01868843384569837,0.0888560808501402,-0.05095772085309416,0.051842022653025954,0.051473376794412135,-0.1373409838886745,0.05331341649649602,-0.017777796468193253,-0.11719989289856006,-0.04097220176304831,0.047047690669062524,0.07875464670898068,0.07789308930423589,-0.0007871291521614248,0.09612061284504357,0.05021906413316881,-0.016181136212905456,-0.004122949259966654,-0.02559294511876829,-0.0031067441905974725,-0.041204633177327775,-0.10833996415732663,0.008134251769869837,0.04411474706412429,-0.07095440074977927,0.04370268650529538,0.08326079179023323,0.024442900732730925,0.0046152457609178665,0.05907088337818908,-0.028228632812905836,-0.084767669556723,0.01943675659169051,0.015035724442516767,0.039491494564614815,-0.043503476132540166,-0.026821180127990677,-0.04177375270270936,-0.027768575672488794,0.019252688506721863,0.011184369780770026,0.07801162462865953,-0.08678602566801108,-0.3235188824594543,0.04939039004877148,-0.03624787334457171,-0.04259812290869306,0.12080795758110648,-0.009937780029068966,-0.0052935544494857895,0.03973513167761993,-0.0758906628891097,0.023580216651840846,0.04064951928758583,0.005416047140848351,-0.03438149981309663,0.02206351034777099,0.03235362680822963,-0.06483248470879083,-0.038914994150652145,0.04782390729527454,-0.024820570905661234,-0.1335548448966218,-0.030946861709540356,0.061787115682698,-0.02573483703802842,-0.11965846433525956,0.003525543617876222,-0.04659686602405116,-0.059549706502167996,-0.03130641150307912,0.07437461740647405,-0.09164875898727169,0.05460584434403297,-0.04856387626288462,-0.011118434975356006,-0.0025936886910753504,-0.0005315113608403752,0.036530835444874385,-0.09481133047775293,0.018851290347131303,0.0025789152223374386,-0.0050085892640876276,-0.012745648823356744,-0.03076878907779191,0.07994455074607512,-0.010944983790448181,-0.02477724275528742,0.009730614832108185,-0.03919370212579572,-0.02024988919021604,0.07220799370463206,-0.016599592768599014,-0.055800919637603835,-0.09158018771543103,0.020451536165307406,0.04879572845491285,-0.00724739278988632,0.26943683352014774,0.06307958212179633,